#include <stdint.h>

const int16_t fc1_weight[769][256] = {{0, 0, 0, 0, 0, 0, 0, 0, 0, 0, 0, 0, 0, 0, 0, 0, 0, 0, 0, 0, 0, 0, 0, 0, 0, 0, 0, 0, 0, 0, 0, 0, 0, 0, 0, 0, 0, 0, 0, 0, 0, 0, 0, 0, 0, 0, 0, 0, 0, 0, 0, 0, 0, 0, 0, 0, 0, 0, 0, 0, 0, 0, 0, 0, 0, 0, 0, 0, 0, 0, 0, 0, 0, 0, 0, 0, 0, 0, 0, 0, 0, 0, 0, 0, 0, 0, 0, 0, 0, 0, 0, 0, 0, 0, 0, 0, 0, 0, 0, 0, 0, 0, 0, 0, 0, 0, 0, 0, 0, 0, 0, 0, 0, 0, 0, 0, 0, 0, 0, 0, 0, 0, 0, 0, 0, 0, 0, 0, 0, 0, 0, 0, 0, 0, 0, 0, 0, 0, 0, 0, 0, 0, 0, 0, 0, 0, 0, 0, 0, 0, 0, 0, 0, 0, 0, 0, 0, 0, 0, 0, 0, 0, 0, 0, 0, 0, 0, 0, 0, 0, 0, 0, 0, 0, 0, 0, 0, 0, 0, 0, 0, 0, 0, 0, 0, 0, 0, 0, 0, 0, 0, 0, 0, 0, 0, 0, 0, 0, 0, 0, 0, 0, 0, 0, 0, 0, 0, 0, 0, 0, 0, 0, 0, 0, 0, 0, 0, 0, 0, 0, 0, 0, 0, 0, 0, 0, 0, 0, 0, 0, 0, 0, 0, 0, 0, 0, 0, 0, 0, 0, 0, 0, 0, 0, 0, 0, 0, 0, 0, 0, 0, 0, 0, 0, 0, 0}, {0, 0, 0, 0, 0, 0, 0, 0, 0, 0, 0, 0, 0, 0, 0, 0, 0, 0, 0, 0, 0, 0, 0, 0, 0, 0, 0, 0, 0, 0, 0, 0, 0, 0, 0, 0, 0, 0, 0, 0, 0, 0, 0, 0, 0, 0, 0, 0, 0, 0, 0, 0, 0, 0, 0, 0, 0, 0, 0, 0, 0, 0, 0, 0, 0, 0, 0, 0, 0, 0, 0, 0, 0, 0, 0, 0, 0, 0, 0, 0, 0, 0, 0, 0, 0, 0, 0, 0, 0, 0, 0, 0, 0, 0, 0, 0, 0, 0, 0, 0, 0, 0, 0, 0, 0, 0, 0, 0, 0, 0, 0, 0, 0, 0, 0, 0, 0, 0, 0, 0, 0, 0, 0, 0, 0, 0, 0, 0, 0, 0, 0, 0, 0, 0, 0, 0, 0, 0, 0, 0, 0, 0, 0, 0, 0, 0, 0, 0, 0, 0, 0, 0, 0, 0, 0, 0, 0, 0, 0, 0, 0, 0, 0, 0, 0, 0, 0, 0, 0, 0, 0, 0, 0, 0, 0, 0, 0, 0, 0, 0, 0, 0, 0, 0, 0, 0, 0, 0, 0, 0, 0, 0, 0, 0, 0, 0, 0, 0, 0, 0, 0, 0, 0, 0, 0, 0, 0, 0, 0, 0, 0, 0, 0, 0, 0, 0, 0, 0, 0, 0, 0, 0, 0, 0, 0, 0, 0, 0, 0, 0, 0, 0, 0, 0, 0, 0, 0, 0, 0, 0, 0, 0, 0, 0, 0, 0, 0, 0, 0, 0, 0, 0, 0, 0, 0, 0}, {0, 0, 0, 0, 0, 0, 0, 0, 0, 0, 0, 0, 0, 0, 0, 0, 0, 0, 0, 0, 0, 0, 0, 0, 0, 0, 0, 0, 0, 0, 0, 0, 0, 0, 0, 0, 0, 0, 0, 0, 0, 0, 0, 0, 0, 0, 0, 0, 0, 0, 0, 0, 0, 0, 0, 0, 0, 0, 0, 0, 0, 0, 0, 0, 0, 0, 0, 0, 0, 0, 0, 0, 0, 0, 0, 0, 0, 0, 0, 0, 0, 0, 0, 0, 0, 0, 0, 0, 0, 0, 0, 0, 0, 0, 0, 0, 0, 0, 0, 0, 0, 0, 0, 0, 0, 0, 0, 0, 0, 0, 0, 0, 0, 0, 0, 0, 0, 0, 0, 0, 0, 0, 0, 0, 0, 0, 0, 0, 0, 0, 0, 0, 0, 0, 0, 0, 0, 0, 0, 0, 0, 0, 0, 0, 0, 0, 0, 0, 0, 0, 0, 0, 0, 0, 0, 0, 0, 0, 0, 0, 0, 0, 0, 0, 0, 0, 0, 0, 0, 0, 0, 0, 0, 0, 0, 0, 0, 0, 0, 0, 0, 0, 0, 0, 0, 0, 0, 0, 0, 0, 0, 0, 0, 0, 0, 0, 0, 0, 0, 0, 0, 0, 0, 0, 0, 0, 0, 0, 0, 0, 0, 0, 0, 0, 0, 0, 0, 0, 0, 0, 0, 0, 0, 0, 0, 0, 0, 0, 0, 0, 0, 0, 0, 0, 0, 0, 0, 0, 0, 0, 0, 0, 0, 0, 0, 0, 0, 0, 0, 0, 0, 0, 0, 0, 0, 0}, {0, 0, 0, 0, 0, 0, 0, 0, 0, 0, 0, 0, 0, 0, 0, 0, 0, 0, 0, 0, 0, 0, 0, 0, 0, 0, 0, 0, 0, 0, 0, 0, 0, 0, 0, 0, 0, 0, 0, 0, 0, 0, 0, 0, 0, 0, 0, 0, 0, 0, 0, 0, 0, 0, 0, 0, 0, 0, 0, 0, 0, 0, 0, 0, 0, 0, 0, 0, 0, 0, 0, 0, 0, 0, 0, 0, 0, 0, 0, 0, 0, 0, 0, 0, 0, 0, 0, 0, 0, 0, 0, 0, 0, 0, 0, 0, 0, 0, 0, 0, 0, 0, 0, 0, 0, 0, 0, 0, 0, 0, 0, 0, 0, 0, 0, 0, 0, 0, 0, 0, 0, 0, 0, 0, 0, 0, 0, 0, 0, 0, 0, 0, 0, 0, 0, 0, 0, 0, 0, 0, 0, 0, 0, 0, 0, 0, 0, 0, 0, 0, 0, 0, 0, 0, 0, 0, 0, 0, 0, 0, 0, 0, 0, 0, 0, 0, 0, 0, 0, 0, 0, 0, 0, 0, 0, 0, 0, 0, 0, 0, 0, 0, 0, 0, 0, 0, 0, 0, 0, 0, 0, 0, 0, 0, 0, 0, 0, 0, 0, 0, 0, 0, 0, 0, 0, 0, 0, 0, 0, 0, 0, 0, 0, 0, 0, 0, 0, 0, 0, 0, 0, 0, 0, 0, 0, 0, 0, 0, 0, 0, 0, 0, 0, 0, 0, 0, 0, 0, 0, 0, 0, 0, 0, 0, 0, 0, 0, 0, 0, 0, 0, 0, 0, 0, 0, 0}, {0, 0, 0, 0, 0, 0, 0, 0, 0, 0, 0, 0, 0, 0, 0, 0, 0, 0, 0, 0, 0, 0, 0, 0, 0, 0, 0, 0, 0, 0, 0, 0, 0, 0, 0, 0, 0, 0, 0, 0, 0, 0, 0, 0, 0, 0, 0, 0, 0, 0, 0, 0, 0, 0, 0, 0, 0, 0, 0, 0, 0, 0, 0, 0, 0, 0, 0, 0, 0, 0, 0, 0, 0, 0, 0, 0, 0, 0, 0, 0, 0, 0, 0, 0, 0, 0, 0, 0, 0, 0, 0, 0, 0, 0, 0, 0, 0, 0, 0, 0, 0, 0, 0, 0, 0, 0, 0, 0, 0, 0, 0, 0, 0, 0, 0, 0, 0, 0, 0, 0, 0, 0, 0, 0, 0, 0, 0, 0, 0, 0, 0, 0, 0, 0, 0, 0, 0, 0, 0, 0, 0, 0, 0, 0, 0, 0, 0, 0, 0, 0, 0, 0, 0, 0, 0, 0, 0, 0, 0, 0, 0, 0, 0, 0, 0, 0, 0, 0, 0, 0, 0, 0, 0, 0, 0, 0, 0, 0, 0, 0, 0, 0, 0, 0, 0, 0, 0, 0, 0, 0, 0, 0, 0, 0, 0, 0, 0, 0, 0, 0, 0, 0, 0, 0, 0, 0, 0, 0, 0, 0, 0, 0, 0, 0, 0, 0, 0, 0, 0, 0, 0, 0, 0, 0, 0, 0, 0, 0, 0, 0, 0, 0, 0, 0, 0, 0, 0, 0, 0, 0, 0, 0, 0, 0, 0, 0, 0, 0, 0, 0, 0, 0, 0, 0, 0, 0}, {0, 0, 0, 0, 0, 0, 0, 0, 0, 0, 0, 0, 0, 0, 0, 0, 0, 0, 0, 0, 0, 0, 0, 0, 0, 0, 0, 0, 0, 0, 0, 0, 0, 0, 0, 0, 0, 0, 0, 0, 0, 0, 0, 0, 0, 0, 0, 0, 0, 0, 0, 0, 0, 0, 0, 0, 0, 0, 0, 0, 0, 0, 0, 0, 0, 0, 0, 0, 0, 0, 0, 0, 0, 0, 0, 0, 0, 0, 0, 0, 0, 0, 0, 0, 0, 0, 0, 0, 0, 0, 0, 0, 0, 0, 0, 0, 0, 0, 0, 0, 0, 0, 0, 0, 0, 0, 0, 0, 0, 0, 0, 0, 0, 0, 0, 0, 0, 0, 0, 0, 0, 0, 0, 0, 0, 0, 0, 0, 0, 0, 0, 0, 0, 0, 0, 0, 0, 0, 0, 0, 0, 0, 0, 0, 0, 0, 0, 0, 0, 0, 0, 0, 0, 0, 0, 0, 0, 0, 0, 0, 0, 0, 0, 0, 0, 0, 0, 0, 0, 0, 0, 0, 0, 0, 0, 0, 0, 0, 0, 0, 0, 0, 0, 0, 0, 0, 0, 0, 0, 0, 0, 0, 0, 0, 0, 0, 0, 0, 0, 0, 0, 0, 0, 0, 0, 0, 0, 0, 0, 0, 0, 0, 0, 0, 0, 0, 0, 0, 0, 0, 0, 0, 0, 0, 0, 0, 0, 0, 0, 0, 0, 0, 0, 0, 0, 0, 0, 0, 0, 0, 0, 0, 0, 0, 0, 0, 0, 0, 0, 0, 0, 0, 0, 0, 0, 0}, {0, 0, 0, 0, 0, 0, 0, 0, 0, 0, 0, 0, 0, 0, 0, 0, 0, 0, 0, 0, 0, 0, 0, 0, 0, 0, 0, 0, 0, 0, 0, 0, 0, 0, 0, 0, 0, 0, 0, 0, 0, 0, 0, 0, 0, 0, 0, 0, 0, 0, 0, 0, 0, 0, 0, 0, 0, 0, 0, 0, 0, 0, 0, 0, 0, 0, 0, 0, 0, 0, 0, 0, 0, 0, 0, 0, 0, 0, 0, 0, 0, 0, 0, 0, 0, 0, 0, 0, 0, 0, 0, 0, 0, 0, 0, 0, 0, 0, 0, 0, 0, 0, 0, 0, 0, 0, 0, 0, 0, 0, 0, 0, 0, 0, 0, 0, 0, 0, 0, 0, 0, 0, 0, 0, 0, 0, 0, 0, 0, 0, 0, 0, 0, 0, 0, 0, 0, 0, 0, 0, 0, 0, 0, 0, 0, 0, 0, 0, 0, 0, 0, 0, 0, 0, 0, 0, 0, 0, 0, 0, 0, 0, 0, 0, 0, 0, 0, 0, 0, 0, 0, 0, 0, 0, 0, 0, 0, 0, 0, 0, 0, 0, 0, 0, 0, 0, 0, 0, 0, 0, 0, 0, 0, 0, 0, 0, 0, 0, 0, 0, 0, 0, 0, 0, 0, 0, 0, 0, 0, 0, 0, 0, 0, 0, 0, 0, 0, 0, 0, 0, 0, 0, 0, 0, 0, 0, 0, 0, 0, 0, 0, 0, 0, 0, 0, 0, 0, 0, 0, 0, 0, 0, 0, 0, 0, 0, 0, 0, 0, 0, 0, 0, 0, 0, 0, 0}, {0, 0, 0, 0, 0, 0, 0, 0, 0, 0, 0, 0, 0, 0, 0, 0, 0, 0, 0, 0, 0, 0, 0, 0, 0, 0, 0, 0, 0, 0, 0, 0, 0, 0, 0, 0, 0, 0, 0, 0, 0, 0, 0, 0, 0, 0, 0, 0, 0, 0, 0, 0, 0, 0, 0, 0, 0, 0, 0, 0, 0, 0, 0, 0, 0, 0, 0, 0, 0, 0, 0, 0, 0, 0, 0, 0, 0, 0, 0, 0, 0, 0, 0, 0, 0, 0, 0, 0, 0, 0, 0, 0, 0, 0, 0, 0, 0, 0, 0, 0, 0, 0, 0, 0, 0, 0, 0, 0, 0, 0, 0, 0, 0, 0, 0, 0, 0, 0, 0, 0, 0, 0, 0, 0, 0, 0, 0, 0, 0, 0, 0, 0, 0, 0, 0, 0, 0, 0, 0, 0, 0, 0, 0, 0, 0, 0, 0, 0, 0, 0, 0, 0, 0, 0, 0, 0, 0, 0, 0, 0, 0, 0, 0, 0, 0, 0, 0, 0, 0, 0, 0, 0, 0, 0, 0, 0, 0, 0, 0, 0, 0, 0, 0, 0, 0, 0, 0, 0, 0, 0, 0, 0, 0, 0, 0, 0, 0, 0, 0, 0, 0, 0, 0, 0, 0, 0, 0, 0, 0, 0, 0, 0, 0, 0, 0, 0, 0, 0, 0, 0, 0, 0, 0, 0, 0, 0, 0, 0, 0, 0, 0, 0, 0, 0, 0, 0, 0, 0, 0, 0, 0, 0, 0, 0, 0, 0, 0, 0, 0, 0, 0, 0, 0, 0, 0, 0}, {0, 135, 581, -59, 264, -12, -79, 601, -116, -107, 117, 326, -95, 32, -123, 156, -98, -19, -127, 332, -62, -179, -80, 95, -339, -171, -62, -162, -146, -134, 23, -332, 25, -248, -21, -52, 5, -82, -79, 0, -44, -5, -263, 77, -47, 163, -216, 173, -60, 10, -159, 479, -14, -551, -130, 53, -132, 856, -67, -3, -154, -67, -74, -35, 325, 15, -102, 62, -40, -148, -42, -114, -149, -3, -433, -330, -296, -62, -8, 229, 156, -14, -29, 222, -4, -614, 148, -105, 498, 59, -25, 541, -61, 67, -93, 121, -65, -250, -368, -226, -42, 25, -37, -171, -106, 0, -283, 150, 125, -59, -119, 74, -209, 159, -81, -157, 121, -25, 149, -252, 147, 184, -94, 109, -14, 28, 0, 92, -259, -16, 178, -225, -28, -124, -5, 270, 23, -17, 425, -373, -33, -141, -327, -255, 268, -350, -146, 153, -207, 176, 52, 634, -244, -137, -13, 87, -190, -734, -325, -100, 54, -47, -186, -20, -103, 17, 352, -218, -258, -11, 9, 295, -87, -212, 130, 19, -223, 60, -18, -204, -142, 86, -82, -137, -27, -123, -122, -19, 152, -39, 20, -14, 30, 379, 250, -194, -162, -37, 28, 20, 82, -9, 22, -24, -134, -124, 141, -642, -49, -184, -9, -279, -156, -81, -323, -195, 45, -593, -111, -141, 541, 35, -73, 76, -126, -158, 20, -10, -1, -29, -91, -352, 28, -519, 15, -215, -98, -99, 131, 61, -298, -45, -154, 68, -54, 598, -169, 149, 155, -114, -33, 113, -174, 176, 129, 46}, {-76, 80, 222, -77, 36, -64, -302, 482, -114, -764, 166, 38, -481, 1286, -95, -56, -75, -3, -25, 469, -12, -3, -129, -39, -241, 203, -169, -13, -131, -10, 247, -131, 44, -158, 50, 94, -135, 69, 17, -45, -82, 88, -352, -42, -130, 229, 407, 286, 47, 38, 44, -83, -170, -468, -107, -283, -45, 616, -137, -59, -248, -72, -107, -672, 437, 56, -115, 52, -31, -142, -26, -56, -193, 100, 56, -133, -339, 2, 160, 4, 18, 38, -50, -6, -130, -64, 273, -26, -127, -43, -68, 540, -9, 124, -308, 261, 30, -410, 68, 90, -131, 103, -135, -155, 13, -498, 235, 135, 31, -50, -82, -17, -335, 189, 225, 9, 155, -294, 61, -336, 4, -92, 174, -37, -197, -18, -196, -55, 560, -35, 57, 182, -88, -69, 13, -173, -5, -100, 563, 63, -118, -210, 299, -28, 238, 94, 20, 128, -231, 181, -12, 496, -17, 671, -101, 22, -155, -62, -28, 63, -38, -47, -144, 90, -155, 124, 218, 16, -148, 72, 23, 528, 60, -124, 14, 91, -255, 59, -213, -85, 436, 237, 0, -692, -80, -72, -85, -165, -120, 119, 10, 0, -49, 45, 66, -12, -144, -99, -12, -111, 75, -30, -34, -32, 93, -69, -484, -496, 203, -51, -152, -419, -69, -59, -290, -205, -316, -556, -46, 14, -119, 24, -102, -57, -136, -99, 131, -98, -18, 23, -43, -27, 40, -478, -123, -65, -136, 72, -153, 244, -281, -106, 323, 30, -28, 117, -204, 90, 97, -10, -33, 16, -50, 194, 149, -84}, {-26, 95, 45, 2, 165, 38, -68, 513, -57, -52, 11, -150, -332, -64, -66, 106, -696, 226, 46, 390, 78, 383, 49, -249, -282, 126, -256, -52, -177, 99, -44, -69, -1, -37, -39, -81, -87, -131, -17, -20, -132, 104, -295, -50, 34, 197, -107, 317, -80, 51, -142, 1, 4, -553, -82, -273, -42, -183, -189, -24, -28, -59, -12, 15, -123, 12, -128, 0, -52, 118, -3, -193, 498, -68, -504, -197, -361, -86, -193, -93, 66, 233, -76, -134, -91, -653, -13, -171, 51, 124, 32, 342, -6, 16, 258, -2, -252, -342, -376, 175, -20, 106, 1, -286, -58, 43, -184, 56, 0, -62, -216, -106, -185, 257, -120, 59, 95, -87, 24, -251, 140, -81, 25, -39, 416, -435, -84, -104, 37, -73, 81, -84, 332, -121, 134, 221, 142, -125, 379, -429, -47, -188, -287, 86, 34, 12, 248, 262, -243, 137, -28, 592, -145, 818, 14, 80, -149, -743, -240, 121, 193, -92, -120, 143, -202, -165, 330, -81, 19, 13, 57, 489, -144, -200, 67, 23, 155, 83, 92, -125, 533, 285, -228, -75, 116, -82, -91, -175, -19, -38, -18, 78, 6, -79, -130, 65, 214, -49, -24, 25, -321, -42, -52, -77, -2, -159, 207, -342, 119, -38, -56, -390, -130, -62, -345, -243, 88, -368, -13, 39, 205, 31, 376, 27, -105, -192, 123, 23, 52, 5, -27, -445, 70, -497, -166, 218, -177, 25, 134, 142, -277, -130, -301, 75, -16, 164, 192, 254, 176, -30, 4, -3, -129, 124, 55, 2}, {18, 31, 86, 120, 197, -1, -227, 497, -72, -49, 9, -61, -144, -29, -58, 136, -81, 60, 72, -129, 132, 258, -193, -470, -192, 357, 25, -164, -180, -22, -246, 15, -4, 18, 18, 163, -91, -123, -18, -157, -143, 3, -201, -36, 207, -184, -123, 176, -50, -2, -110, 138, -20, -499, -107, 63, -17, -26, 86, 28, -153, -385, -50, -625, -118, 75, -88, -26, 20, 316, -6, -115, 32, 9, 24, -194, -359, -61, 131, -52, -39, 109, -104, 66, 249, -47, -67, -35, -34, 163, -148, 366, -72, 285, -230, 95, 211, -379, -10, -28, 40, 50, -1, -178, -24, -497, -193, -8, -172, 9, -104, -131, -211, 307, -115, -82, -42, -133, 82, -217, 177, 46, 283, 17, 495, 610, -46, -33, -32, -19, 34, 100, -275, -42, 142, -176, -46, -70, 548, 198, 48, -145, -177, -206, 39, -327, 57, 128, -255, 91, -39, -178, -23, 829, -222, 91, -200, -64, -178, -23, 0, 37, 126, 242, 40, 11, 254, -128, 91, -31, 7, 186, -171, -71, -20, -30, -248, -42, -109, -93, 427, -130, 23, -717, 63, -55, -121, -88, -14, 1, 206, 2, 16, -104, 8, -93, -205, -53, 15, -55, 145, -140, -11, -49, -215, -50, 60, -239, 96, -67, -124, -325, -107, 82, 158, -369, -234, -546, -75, 37, -213, 91, -124, -173, -40, -36, 74, 31, -68, 28, -70, -203, 11, -530, 53, 230, -177, -65, 129, 19, -28, -65, -122, 27, 102, 177, 590, -112, 104, 1, 173, 297, -195, 97, 5, -148}, {14, -64, -25, -29, -45, -129, -174, 391, -169, -107, -111, 108, 127, -104, -76, 49, -629, 38, -81, -493, 76, 490, 65, -318, 293, 68, -47, -113, -20, -20, -233, -120, -52, -81, -19, -144, 52, -221, 9, -48, -87, 20, -264, 43, 152, 396, -22, 357, -102, 34, -73, 36, -43, -445, -153, -270, -223, 10, -175, -37, 319, 8, -57, -40, -69, -46, -93, -33, -7, 250, -1, -115, -70, 7, -415, -271, -261, -63, -167, -133, -245, 132, -36, 2, 175, -601, -125, -84, -10, 57, 257, 255, -79, -30, -122, 69, -209, -85, -401, -154, 220, -99, -26, -238, -13, 0, -130, 152, -130, -37, -145, -216, -329, 349, -29, -193, 19, -170, 74, -265, 79, -2, 330, -104, 7, 515, -6, -32, 46, 97, 303, -41, 351, -44, 90, 309, 73, -110, 169, 41, 107, -135, -152, -182, 7, -170, -15, 100, 34, 91, -15, -210, -189, 794, 29, -136, 142, -50, -165, -57, -32, -134, -188, -73, -9, 141, 125, -17, -143, -5, 20, -69, -159, -272, 68, 7, -138, -134, 59, -126, 172, -439, -69, -81, -64, 59, -80, -170, -30, -157, 98, 3, 28, -92, -157, -188, -45, -115, 111, -16, -346, -146, 8, 41, 434, -117, 109, -26, -10, -51, -155, -163, -172, 52, -211, -292, 13, -486, -50, -140, -92, 44, 371, -69, -79, 63, 33, 592, 26, 43, -74, -6, -20, -495, -77, 69, -86, 20, 320, 76, 362, 0, -82, -62, -87, 128, 811, -50, 63, 17, -15, -74, -115, -15, 156, -42}, {28, -107, 27, 20, 386, 36, -3, 313, 49, -46, -344, 112, 86, 182, -64, 50, -65, -41, -109, -579, -11, -66, 5, -408, 447, 91, -60, -131, -19, -44, 420, -106, 50, -30, 5, 0, 118, -212, -57, -95, -177, 3, -168, 98, 153, 232, -133, -11, -111, -20, -178, -6, 55, -400, -10, -279, 178, 0, 62, -68, 216, -38, -72, -562, -199, 40, -50, -28, 250, -330, -42, -111, -118, 145, -404, -93, -295, -27, -120, -139, -104, 314, 7, 19, -100, -37, -11, 15, -159, 23, 63, 193, -10, 11, -39, 82, 143, 214, -11, -197, 195, 105, -11, -231, -104, -461, -164, 154, -123, -79, -253, -48, -226, 114, -119, -319, 142, -46, 172, -272, -9, -6, 217, -108, -132, 562, -95, 0, -19, 47, 40, -33, -300, -65, 23, -135, 32, -90, -19, 251, 390, -260, 88, 111, -114, -196, -30, -90, -65, 88, -13, -191, 22, 320, -215, -42, 29, -64, -252, -114, 94, 7, -152, 80, 11, 306, -218, -202, 490, -23, 18, -105, -18, -272, -28, 387, -150, -50, 238, -1, 33, -150, -58, -686, -46, -25, -16, -186, -130, -330, 485, -3, 19, -59, -111, -74, -6, -75, -43, -139, -100, -78, -41, -4, -180, -114, 31, -31, 74, -222, 18, -149, -124, 77, 71, -290, 644, -515, 162, -135, -69, 5, -236, 2, 1, -19, 133, 60, 58, -68, -125, -52, -12, -543, -80, -91, -16, -127, 153, -109, 289, -93, -128, 110, -88, -51, 617, -66, -12, -46, -40, 138, 20, 2, -2, -119}, {0, -29, -30, 74, -161, -78, -259, 287, -106, -97, -360, 128, -158, 44, -69, 53, -612, 18, -134, -465, -58, -176, -46, 106, 531, -110, -138, -92, 95, -27, 332, 78, 28, -370, -115, -70, 41, -26, -46, -165, -150, 42, -205, 229, -15, 21, -11, 49, 1, 18, -125, 201, 54, -329, -22, -139, -175, -98, -150, -36, 238, -35, -28, -497, -217, -10, -24, -21, 640, -221, 1, -53, -37, -72, -426, -191, -323, -39, 188, 708, -230, 142, -7, -76, -55, -596, -119, -58, -43, -8, -2, 179, -24, -51, -94, -78, -18, 191, -278, -105, 149, 17, -37, -118, 26, -8, -123, 202, -31, -78, -207, 277, -318, 59, 21, -301, 71, -112, 9, -260, -8, -20, 1, -50, -124, 444, 11, -120, -52, 77, 336, -154, 150, -66, -32, 47, 68, -49, -78, 8, 191, -189, 119, -132, 7, -134, 8, 32, -16, 9, 82, -201, 2, -114, -95, 194, 344, -53, -191, 30, 192, -81, -93, -39, -20, -135, -183, 122, -37, 48, 37, -87, -142, 856, 156, -240, -77, -31, 128, -79, 40, 577, -31, -29, -64, -155, -1, -250, -26, -105, -54, -79, 28, 24, 67, 6, -177, -86, -150, -13, -65, -66, 2, -69, 150, 1, -10, -15, 7, -176, 27, -33, -65, 64, -183, -208, 565, -443, -6, -57, 32, 41, 492, -169, -63, 72, -3, -510, -20, 58, -120, 0, -10, -397, -123, -132, -20, -120, -110, -100, -33, -87, 48, -12, -42, -132, 280, -11, -35, -67, -18, -8, -36, 34, 26, -3}, {15, -18, 55, -28, 165, -85, -194, 279, -91, -67, -323, -38, -47, 10, -71, 21, -75, 7, -55, -413, -32, -212, 16, 39, 545, 84, -82, -5, 400, -118, 70, -190, -92, -93, -68, -154, 111, -293, 68, 311, -68, -78, -46, 496, 14, -82, -151, 79, -18, 15, 14, 111, -21, -245, 52, -97, 11, -32, -97, -83, -227, 15, -76, -563, -189, 31, -154, -89, 717, -340, -42, -27, -59, 114, -447, -239, -252, -84, -219, 1030, 563, 12, -8, 111, 43, -29, -74, -134, -153, 16, 0, 419, -14, 63, 5, -12, 43, 136, -204, -93, -789, 159, -61, -181, 25, -447, -135, 306, 71, -107, -311, 40, -269, -48, -143, -82, -87, -169, -3, -286, -41, -22, 92, 356, -91, 417, -57, -66, 3, -21, 192, -113, -67, 193, 30, -109, -31, -100, -81, 214, -43, -147, 7, -159, 14, -226, 5, -75, -203, 199, 136, 182, -56, -58, 3, 186, -81, -77, -142, -87, 50, -55, -127, 124, -166, 284, -341, -55, 28, 8, 12, -108, -52, 710, 39, -206, -209, 22, 380, -109, -2, 417, -66, -695, -65, -159, -79, -108, -300, 487, -2, -16, 93, -15, -82, -127, -56, 533, -105, 4, -131, -38, -46, -68, -30, -169, 184, -26, 17, -187, 104, -167, -93, 13, -266, -269, -78, -549, -28, -99, -31, 20, -19, -75, 64, 190, 48, 222, -5, -39, -85, 71, 40, -544, 39, -167, -34, -76, -95, -50, 259, -143, -178, 154, -45, -5, -303, -86, -13, -49, -107, -39, 54, 35, -80, 108}, {-115, -49, 224, -47, 79, -63, 5, 459, -76, -92, 11, -78, -470, -3, -89, -65, -88, -2, -72, 33, 42, 142, -17, 94, -81, 23, -141, -99, 14, -40, -171, 143, 49, -198, -27, -101, -22, -27, -58, 66, -125, -24, -235, -2, 71, 65, -97, 169, 110, 54, -31, 88, 74, -548, -36, -29, -128, 1098, 139, 26, -82, -40, -98, -52, -346, 52, -28, 103, -19, -121, -120, -109, 39, 49, -36, 40, -371, 68, -140, 151, 37, 105, 100, 120, 16, -101, 14, -45, 552, -215, 15, 374, -24, 59, 122, 14, -62, -266, -64, -443, -89, 124, -53, -103, -96, -24, -78, 0, 207, 3, 11, 14, -146, 37, -37, -182, -28, -75, -9, -306, -142, 176, 43, -11, 140, -155, -146, -19, 124, -2, -85, -94, 157, -65, 26, 51, -17, -39, 171, -136, -75, -65, -43, -142, 165, -352, 129, 86, -114, 122, 64, 390, -1, -240, 50, 58, -1, -89, -179, -144, 37, 16, -10, 60, -113, -38, 330, -61, -157, 3, 35, 402, 462, -34, -2, -17, -107, -107, 61, -170, 80, 91, -50, -85, 221, -38, -17, -23, -40, -223, 61, -21, -44, -387, 259, -285, -61, 9, -40, -14, 79, 216, -45, -35, 7, -91, -348, -653, -38, -13, -97, -395, 56, 26, -108, -106, -170, -172, 42, -80, 526, 43, 264, -34, -70, -42, 37, -70, 37, -30, -58, -369, 39, -136, 135, 73, 55, -142, 41, -162, -177, -33, -196, 1, 68, 435, -33, 194, 100, 3, -96, 7, -103, 107, 200, -39}, {32, -75, 83, -23, 15, -99, -31, 368, -40, -116, 53, -52, -464, -262, -97, -56, -70, 76, -13, 5, 112, 19, -2, -78, -115, 66, -39, -101, -30, 50, -101, 129, 14, -291, -4, 151, -139, -88, 66, 48, -13, -123, -213, 13, -38, 73, 464, 203, 51, 18, -79, -57, -18, -113, -49, 37, -69, 928, -39, 62, -59, -204, -139, -81, -239, 27, -55, 123, -8, 60, -4, -95, -179, 92, -26, 6, -270, -84, 127, 168, 81, 68, 143, 111, -21, -90, 557, -29, -27, -141, -22, 274, 47, 75, -59, 194, -66, -410, -117, 99, -104, 16, 6, -46, -18, -82, -18, 71, 155, -2, 33, -121, -217, 173, 13, -117, -5, -133, -32, -304, -63, -52, 75, -9, 196, -161, -94, 122, 170, -39, -63, 83, -407, -64, 15, -41, -57, -97, 156, 108, 21, -56, -37, 79, 3, -98, 80, 175, -59, 124, 78, 170, -32, 331, -93, 84, -82, -76, -38, 77, 62, 37, -9, 9, -107, -106, 252, -30, -34, 74, 19, 625, -210, -50, 49, 64, -22, 74, 25, -58, 495, 134, 20, -103, 143, -138, -61, -103, 52, -203, 13, -112, 58, 108, -139, -4, -35, 5, -17, 2, -111, -127, -26, 107, -48, -24, 98, -533, -133, 34, -50, -424, 78, 61, -92, -107, -103, -158, -61, 41, -91, 3, 293, 22, -41, 32, 41, -8, 80, 14, -45, -412, 36, -377, -194, -52, 16, 74, 71, 7, -171, 18, 353, 124, -100, -296, -71, -235, 92, -118, 223, -63, -104, 132, 72, -40}, {-73, 51, 112, -49, 26, 25, -57, 391, 8, -54, 101, 106, 69, 4, -78, -25, -116, 34, -178, -4, 121, 198, 0, -77, -201, 107, -222, 4, -94, -87, -286, 157, 27, -246, 27, -76, 13, -54, -26, 23, -159, 10, -220, -39, 5, 51, -167, 244, -120, 14, 7, 163, -51, -539, -61, -12, 25, -148, 12, -40, 111, 72, -56, -27, -347, 19, 0, 189, 11, -134, 6, -135, -3, 121, -124, -72, -350, 21, -76, 63, 135, 84, 3, 9, -66, -77, -109, -47, -2, -90, 149, 233, -22, -26, -402, -3, -18, -484, 13, -145, -104, 86, -64, -41, -27, -29, -105, -30, 78, 34, -86, -47, -51, 130, -47, -43, 25, -58, -28, -197, -90, -21, 153, -19, 482, -24, -98, -136, -35, -45, 69, 22, 397, -38, 40, -84, -2, -79, 91, -289, -29, -52, 340, 39, 10, 40, -60, -348, -34, 114, 7, 50, -31, 681, 20, 103, -38, -87, -121, -68, 116, -7, -100, 136, -112, -80, 254, -10, -79, 14, 9, 649, 64, 30, 31, -90, -43, -321, -66, -164, 688, 36, -50, -58, 81, -41, -34, -105, -99, -139, -88, -30, 42, 65, 87, 120, -31, -2, -50, 81, -224, 80, -66, 3, 69, -74, -66, -406, -23, -5, 58, -355, -28, -2, -161, -180, -325, -219, 9, -75, 109, -104, 251, -99, -31, -227, 103, -103, 48, 1, -64, -431, 27, -156, 3, 163, -128, -127, 0, -75, 0, -45, -346, 53, 119, 414, -26, 70, 65, -18, -265, 82, -57, 17, 45, 27}, {-57, 294, -51, -6, 37, -21, -58, 456, -56, -71, -14, -16, -155, 188, -74, -82, -55, 15, 214, -86, 90, 197, -82, -203, -29, 123, -87, -58, 38, 27, -107, -2, 11, -190, -48, 79, -81, -70, -57, -96, -42, -155, -187, 59, 71, -412, -6, 301, 15, 34, -5, 179, -56, -447, 41, 57, 60, -23, 184, 6, -340, -526, -87, -61, -212, 44, -77, 22, 76, 192, -19, -42, 287, -9, -16, -46, -364, -132, 95, 147, 83, 73, -92, 243, 101, -41, -2, -66, -47, -93, 214, 292, 3, -24, 26, 35, -480, -466, -248, -41, -130, -12, 9, -144, 2, -54, -119, 37, 71, 18, -77, -80, -209, 219, -136, -102, 86, -86, 343, -185, -71, 52, -5, -109, 421, 66, -41, -101, 43, 55, 32, 52, -508, -107, 65, -16, -47, -66, 157, 252, -15, -63, -264, -123, 42, -237, 97, 68, -77, 64, 36, -156, -62, 716, -65, -33, -62, -51, 76, -21, 67, 146, -42, -58, 98, 76, 227, -97, 173, -31, 29, 225, -106, 0, -41, 25, -29, -29, 60, -26, 115, -41, -2, -67, 134, 12, -36, -93, -19, -122, 40, -53, 68, -46, -19, 58, -107, -4, 10, 45, -258, -110, 26, 4, -28, -91, 72, -289, 35, -49, -25, -342, -19, -58, 80, -131, -88, -91, -81, -22, 19, 71, 734, -46, -93, 172, 106, 76, 126, 110, 48, -57, 27, -452, -127, 2, -161, 97, 118, -36, 82, -36, -20, 193, 197, 18, 242, -48, 78, -46, 366, 125, -218, 78, 28, -19}, {-51, -249, 19, 54, -547, -113, -83, 411, 17, -108, -44, -106, -5, 234, -82, -29, -92, -16, -32, -409, 101, 279, 82, -476, 227, 65, 56, -39, -101, 19, 41, -258, 25, -289, -6, -159, -40, -43, -75, -34, -121, 42, -189, -17, 158, 74, -155, 240, -92, 43, -64, 300, -55, -380, -68, -100, -178, 40, -207, -32, 414, 132, -181, -40, -41, 17, 92, -17, -51, -129, -36, -111, -154, 168, -81, -26, -336, 70, -100, 161, 13, 25, 41, 293, -39, -68, -18, -67, -113, -69, 67, 226, -16, -56, -39, -110, -20, 58, 48, -136, 15, -44, 353, 19, 4, -55, -31, 76, 63, 38, -177, -52, -179, 136, -60, -309, -39, -46, 465, -229, -45, -132, 346, -70, 300, 410, -29, -42, 122, 220, 6, -38, 493, 67, 93, -64, 29, -76, 128, 53, 233, 30, -77, -70, 42, -207, 124, 119, 56, 59, -12, -209, -43, 584, -60, -287, -316, -52, -132, -6, 79, -44, -66, -107, 0, 178, 138, 90, -234, -5, 25, -164, -59, -91, -60, 73, -96, 9, 137, -17, 228, -486, -44, -61, 143, -66, -22, -85, -82, 6, -33, 17, 79, 90, -80, 32, -3, 71, 197, 94, -241, -75, 50, 45, -400, -54, 74, -146, 68, -94, 181, -205, -53, 18, -88, -206, -6, -207, 8, -162, -32, 94, 177, -35, -15, -75, 60, 208, 114, 87, -21, -196, 27, -457, -11, 186, -56, -219, 58, 107, 226, 0, -171, -169, 92, 31, 462, -38, 26, 25, -176, -244, 94, -88, 8, -67}, {155, 451, -18, -231, -69, -33, -81, 297, -53, -69, -348, 2, -34, 232, -81, -50, -62, 25, -104, -543, 138, -160, -105, -214, 380, 14, -57, -46, -404, -121, 217, -262, 3, -315, 5, 75, 129, -118, -99, 55, 14, 77, -161, 83, 126, 171, -135, 217, -138, 0, 13, 188, -27, -67, 53, -142, -286, 64, 317, -25, -285, -77, -34, -93, 84, 15, 61, -5, -68, -109, -32, 21, 4, 67, -56, -78, -327, 0, -21, 18, -31, 139, 68, 142, -27, -52, -177, -44, -117, -106, -83, 180, -36, 14, 37, 26, 100, 33, -304, 0, 286, 80, 159, -26, -73, 7, -119, 47, 70, -19, -238, -28, -389, 38, 6, -32, 70, -143, 260, -217, -323, 38, 303, -300, 14, 424, -34, -49, 20, -142, 10, 116, -344, 56, 31, -25, -13, -28, 88, 198, 148, -164, 74, 35, -32, -150, -16, 103, 17, 35, 23, -171, -151, 101, 145, -280, 499, -63, -200, -100, 254, -113, -50, -7, 50, 128, -69, -183, 308, 28, 16, -35, -93, -270, 98, 161, -42, 23, -41, -134, -23, -21, -33, -62, -15, -6, 11, -189, -266, -92, -76, -54, 28, 21, -57, 114, -62, 100, -35, -89, -98, -31, 12, 60, 129, -123, -67, -119, -8, -126, 52, -79, -165, -15, -31, -163, 58, -72, -3, -77, -15, 168, 684, -24, -42, 17, 37, 378, 63, 20, -129, -4, 11, -504, -19, -200, -115, -111, -107, -178, 123, -50, -186, 73, -84, 83, 248, 49, 84, -42, 196, 106, -127, -10, 82, 7}, {-28, -92, 162, -30, 134, -39, -129, 381, 73, -156, -482, 71, -56, -117, -71, -163, -127, 111, -2, -460, -40, 120, 60, -16, 379, -98, -53, 105, 318, 52, 318, -267, 25, -574, 24, -47, -165, -158, -31, -168, -44, -16, -102, 123, 51, 117, -160, 115, 42, 43, -99, 244, -22, -244, -61, -47, -61, -42, -199, -31, 371, -27, -54, -110, -21, 30, 90, 26, 799, -218, -28, -166, 15, -31, -164, -135, -411, -15, 102, -165, -132, -52, 42, 101, -91, -87, -142, 11, -66, -144, -129, 226, 40, 91, -48, 162, -29, 107, 18, -168, 308, -20, 153, -35, 34, -120, -96, 203, 85, -85, -256, 475, -377, -3, -90, -411, -24, -24, 166, -295, -123, -154, 140, -119, 67, 362, -57, -81, 136, 301, -182, -143, 266, -180, -6, -50, -17, -37, 355, 45, 3, -57, 78, -204, 12, -71, 8, 122, -112, 15, 72, -317, -42, -138, -67, -239, -144, -68, -37, -19, 78, 209, -29, 21, -164, -224, 4, 149, -46, 14, 9, -22, -97, -228, 122, 266, -186, 25, -137, -54, 73, 129, -57, -99, 111, -128, 26, -145, -30, -193, -165, -54, 164, 39, 24, 121, -68, 70, -191, 63, -44, -88, -16, 36, 78, 92, 63, -42, 69, -145, 164, 69, -134, 67, -86, -206, 93, -214, 1, -43, 58, -12, 368, 40, 135, 141, 91, -717, 35, 66, -79, 80, 13, -115, -99, -20, -111, -155, -54, -88, 78, -88, -100, 38, 21, 53, 187, 21, -13, -97, -47, 167, -23, -82, -11, -41}, {-34, 47, 98, 164, 0, 167, -60, 405, -39, -73, -297, 5, -16, -76, -74, 20, -71, -10, -86, -336, 75, -89, 51, -67, 328, -61, -51, -35, -137, -49, 126, -249, -18, 4, -29, -52, 175, -70, -77, 55, -45, -1, 23, 117, -3, 162, -141, 215, -148, 24, 1, 159, -124, -67, -64, -142, -202, -49, 70, -68, -82, 101, -109, -68, -1, 81, 21, -25, 1071, -29, -76, -56, -32, 77, -61, 24, -442, -73, -207, -237, 575, 84, 93, 118, -27, -55, -54, -19, -220, -41, -41, 325, -33, -5, -76, 117, -61, 49, -225, -117, -997, 217, 45, -31, -47, -19, 28, 230, 159, 47, -240, 159, -347, -347, 67, -88, -461, -66, 31, -299, -198, 14, 163, -190, 68, 394, -122, -43, 84, 19, -30, -71, -147, 310, 79, -41, -49, 97, 287, 157, -16, -120, 90, -162, 41, -136, 63, 10, -109, 51, 89, 23, -80, -77, 148, 71, -24, -75, -162, -120, 42, -153, 194, -48, -176, 377, -2, -38, 153, 48, 19, -63, -117, -337, 33, -418, -158, -53, -20, -7, 83, -45, -34, -114, -122, -96, -17, 3, -6, -165, 51, -102, 124, 78, -59, -22, -74, 634, 20, -63, -37, -91, 49, 31, -127, -73, 148, -126, 80, -154, 172, -102, -170, 86, -140, -191, 32, -103, -99, -1, -43, 1, 242, 69, 115, 73, 55, 235, 71, 11, -18, -73, 68, -565, 224, -61, 30, -36, -392, -66, 81, -71, -161, 91, -51, 79, 126, 57, 14, -83, 10, 121, -61, 110, -20, 124}, {-21, 14, 77, -31, 23, -115, -29, 434, 24, -69, 85, 9, -489, 23, -58, -159, -63, -4, -30, 53, 24, -77, 48, -30, 117, 82, -131, -72, -45, 8, -34, 51, -40, -237, 4, -139, -39, -11, -28, 23, 67, 54, -99, 77, 43, 0, -131, 223, -4, 70, 18, 75, 46, -124, -20, 29, 43, 763, 65, 24, -92, -121, -85, -45, -74, 55, 37, 123, -30, -42, -78, -42, -59, 41, -32, 40, -498, 5, -53, -21, -13, 89, 208, 26, 16, -52, 11, -1, 510, -278, 137, 329, 5, 22, -1, 147, 39, -216, -78, -118, -78, 37, 40, 53, -66, -32, 76, 15, 164, 35, 4, 28, -8, -24, -76, -11, 25, -40, -55, -186, -204, 33, 136, -47, 73, -45, -110, 0, 14, -47, -57, -4, 110, -55, -53, 22, -7, -46, -21, -145, 118, 62, -8, 63, -134, -213, 150, 110, -14, 121, 91, 189, 1, -160, 59, 22, -37, -63, -47, 22, 60, 8, -28, 33, -56, 18, 214, -6, -69, -27, 38, 360, 320, -60, 38, 33, 23, 5, 23, -93, 54, 37, 35, -65, 199, -97, 38, 29, -60, -127, 12, -12, 20, -372, 333, -311, -10, 11, -60, 48, 45, 151, -23, -4, 44, -24, -314, -501, -81, 20, -36, -417, -439, -11, -55, -64, -49, -110, -55, -6, 487, -62, 52, 33, -57, 134, 50, -60, 81, 39, -38, -189, 58, -199, 105, -14, 39, -11, 64, -25, -192, 0, -269, 43, -48, 128, 23, 56, 69, -27, -44, 32, 12, 87, 98, 40}, {1, -5, 0, 4, 21, -132, -10, 417, 15, -108, 46, 12, -323, -117, -83, -131, -62, 56, -50, -67, 43, 35, 62, -36, 113, 120, 10, -62, -69, -145, -364, 126, -8, -337, 26, 660, -85, -39, -36, 72, 56, 5, -151, 46, 24, 98, 297, 77, -34, 40, -12, 162, -76, -192, -26, -5, 19, 396, -30, 42, -42, -240, -61, -67, -184, 42, 19, 254, -42, -56, -78, -7, -45, 163, -57, 7, -473, -110, 59, -43, 20, 61, 215, 49, -16, -54, 671, 18, -161, -243, 180, 336, 46, 55, 177, 89, 59, -210, -75, -521, -29, 21, 22, 61, -64, -44, 55, 28, 112, 43, 59, -15, -121, -12, -26, -54, 8, 3, -3, -236, -194, -184, 148, -66, 147, 39, -83, -13, 80, -10, 24, 59, -294, -7, 0, 9, -56, -19, -7, 68, 56, 93, 131, -20, 80, -169, -555, 36, -36, 114, 77, -47, -64, -70, 25, 44, -46, -67, -14, 34, 94, -3, 37, 15, -44, 7, 235, -25, -32, 18, 25, 623, -241, -4, 22, 17, -33, -21, 7, -99, 471, 39, -6, -47, 95, -49, 14, -30, 0, -54, 11, 24, 7, 106, -76, 87, 36, -32, -83, 52, 15, -131, 67, 47, 14, -2, -454, -514, -25, 19, -17, -383, 29, 21, -65, -69, -262, -141, -84, -35, -190, -9, 48, 9, -27, 155, 53, 13, 55, 11, -65, -551, 48, -128, -173, -98, -120, -282, -54, -39, -120, -18, 242, 50, -46, -243, -14, -247, 53, -81, -8, 16, -92, 92, 142, 23}, {-27, -10, 61, 82, 41, -84, 75, 388, 27, -67, 78, 47, -57, 37, -50, -185, -69, 70, -211, -16, 71, -83, -26, -97, 66, 39, -32, -36, 122, 393, -139, 14, -11, -441, 57, 11, 27, -62, -10, 20, -59, -41, -142, 101, -4, 10, -133, 191, -56, 45, -18, -1, -31, -140, -29, -10, 69, -126, 26, -18, -49, 53, -60, -50, -23, 38, 0, 206, 12, -12, -45, -6, -35, 116, -34, -25, -439, -60, -41, 30, 135, 48, 120, 180, -29, -57, -434, 7, -46, -260, 241, 288, 29, 55, -661, 72, -11, -465, -116, 74, -86, -4, 25, 114, 27, -17, 3, -43, 75, 65, -42, -80, -101, 26, -80, -35, -61, 61, 167, -214, -258, -78, -672, -65, 164, -35, -59, -464, -34, -5, -46, 60, 450, -28, 1, 18, 0, 5, -20, -207, -6, 39, 64, 351, -743, -265, 42, -424, 33, 103, 82, -35, -1, 589, 41, -1, -92, -64, 21, -78, 120, 14, -73, 0, -190, 47, 146, 25, -184, -107, 25, 669, 41, -86, 42, 90, -9, 41, 73, -64, -131, 53, 229, -63, 77, -63, 14, 52, -40, -144, 28, -61, 56, 192, 164, 23, -55, 38, -34, 102, 11, -99, 71, -330, 126, 0, -67, -376, 9, -17, -27, -355, -532, 38, -43, -73, 24, -128, -39, -38, 51, 23, 193, -15, -98, 539, 63, -17, 88, 10, -17, -205, 46, -138, -7, -587, -133, 115, -17, 57, 78, -79, -506, 169, -214, -164, -20, 31, 11, -36, 51, 59, 4, 117, 90, -19}, {-59, 95, -79, 45, -1034, -97, 12, 368, 28, -91, -6, 71, -142, 99, -79, -103, -62, -871, 656, -42, 111, 18, 96, -79, 112, 91, -104, -78, 0, -209, -44, 13, -19, -373, -11, 639, -39, -16, -100, 0, -54, -8, -236, -7, 49, -652, -51, 31, 1, 54, 19, 349, -62, -163, -28, -32, 131, -55, 190, 3, -573, -636, -40, -43, -235, 32, -29, 197, -19, -30, -73, -71, -46, -54, -50, 31, -456, -5, 413, 86, 40, 14, 184, 272, -47, -28, -13, -70, -80, -165, 398, 250, -15, 61, 181, -105, -589, -240, -91, -623, -10, 51, -45, 123, -44, -35, -58, -16, 74, 25, -49, 8, -78, 28, -59, -129, 7, 79, 164, -181, -151, -56, 122, -83, -96, -66, -51, 26, -83, -5, 104, 49, -483, -11, -5, -20, -40, -33, -82, 95, 5, 61, 53, -25, 29, -124, 153, -61, -12, 85, 82, -99, -70, 714, 56, 123, -57, -44, 56, -82, 197, 15, 36, 54, -616, -17, 176, 23, 168, -17, 32, -18, -78, 10, -82, -10, -66, -716, -50, -56, 453, -84, -103, -33, 62, -96, -12, 22, -29, 9, -49, 63, 77, 85, -22, 79, 28, -8, -279, 52, -424, -21, 118, -7, 70, -11, -101, -354, 14, -28, -39, -146, -96, 36, 0, -65, -69, -124, -8, -8, 31, 18, 147, 25, 29, 134, 61, 14, 82, 58, 20, 118, 47, -121, -112, 95, -187, -409, -40, 35, 98, -45, -64, 39, 409, -179, 2, 117, 105, -124, -102, 39, -269, -83, -518, -70}, {6, 1093, -34, -755, -15, -69, -5, 366, 11, -80, -31, 6, -68, 180, -57, -224, -93, -10, -193, -289, 60, -52, 4, -413, 326, 23, 637, -51, -694, 11, -39, -54, -6, -576, 42, -109, -252, -59, -89, -25, -38, -466, -148, -93, 98, 13, -62, 209, -77, 46, -154, 149, -33, -117, 14, -45, -31, -10, -194, 22, 296, 111, -377, -53, 37, 40, 71, 271, -128, -87, -52, -62, 129, 171, -40, 38, -475, -20, -26, 42, 209, -45, 96, 200, -17, -67, -182, 8, -156, -244, 98, 243, 12, -27, 33, 10, -1, 5, -122, -60, 108, -194, 153, 141, 31, -36, -3, 51, 59, 3, -102, -126, -13, -274, -115, -60, 95, 15, 427, -225, -191, -103, -16, -79, 138, -9, -40, 248, 3, 48, 174, 409, 364, 7, 15, 29, -29, -88, -2, -188, 101, -33, -81, 61, 39, -179, 82, 104, 77, 73, 86, -51, -55, 254, -262, -455, -62, -63, -99, -60, -137, 107, 65, -29, 143, 124, 97, 69, -253, -32, 12, -64, -55, -64, -6, 72, 14, 38, 127, -118, 36, -406, 1, -37, 39, -490, 23, 11, -155, -19, -29, -71, 86, 18, -7, 89, -27, -33, 499, 1, -12, -69, -25, 21, -716, -169, 32, -234, 66, -102, 16, -76, -62, -27, -55, -40, -2, -149, -210, -89, 0, 79, 148, -40, 68, 115, 45, 61, 150, 85, -85, 40, 49, -149, -138, -609, -259, -57, 57, 35, -33, -36, -144, 371, -358, 29, 104, 66, 43, -149, -70, -800, -8, 58, 70, -59}, {43, 67, -25, -16, 1, 9, -3, 324, -9, -67, -173, -806, -8, 68, -79, -90, -52, 73, 77, -456, 73, 15, 10, -152, 297, 43, -283, -30, 86, -98, 69, -248, -33, -351, 42, -89, 382, -12, -65, 32, 87, 64, -77, 99, 87, 89, -16, -2, -30, 26, 72, 364, -63, -157, -83, -79, -492, -15, 325, 0, -629, -182, 8, -45, 90, 49, 118, 199, -103, -76, -82, -119, -434, 81, -55, -1, -460, 52, 37, -26, -229, -44, 240, 303, -26, -24, -138, -19, -136, -243, 84, 230, -41, 144, 40, 63, 91, 66, -48, -94, 70, 190, 269, 133, -13, -72, -96, 27, 51, -77, -295, -100, -133, 38, -4, -146, -21, 10, 258, -230, -585, 159, 77, -191, 49, 115, -66, 35, -12, -514, -22, 90, -356, 155, -26, -13, -20, -116, -19, 60, 110, 52, 67, 30, -103, -101, -16, 115, -103, 53, 66, -102, -148, 14, 282, -328, -2, -52, -96, -22, 110, -233, -126, 9, -567, -18, 115, -348, 346, -7, 33, -53, -17, -141, 101, 27, 60, 93, -137, -468, -28, -56, 5, -45, 24, 162, 55, -60, 58, 40, -165, -22, 93, -6, 76, 57, 0, 51, -179, -178, -21, -26, -155, -56, 86, -51, 26, -169, 106, -148, 34, 10, -151, -12, -21, -70, -21, -117, 355, -48, -28, 32, 147, 52, -546, 0, 77, 94, 97, -69, -138, -31, 18, -124, -286, -130, 10, -12, -284, 560, 56, -48, -119, 32, -44, 12, 77, 8, 54, -30, -35, 46, -78, -121, 107, -31}, {-122, 812, 66, 114, -31, 24, -22, 336, 59, -85, -543, 6, -124, -204, -61, -296, -88, 43, 6, -346, -6, 61, 32, -2, 302, 9, 272, -424, -7, -50, 32, -162, -16, -659, 92, -58, -484, 38, -38, -97, 45, 42, -223, -58, 133, 61, -8, 162, -27, 42, -23, 41, -50, -150, -93, -61, 59, -39, -188, -1, 220, -22, -61, -66, -16, 36, 112, 204, 602, 40, -50, -179, 0, 0, -49, 11, -460, -44, 85, -41, -7, -114, 185, 95, -22, -84, -90, 26, -244, -186, 169, 315, 54, 1, -55, 75, 57, 49, -129, -136, 41, -97, 8, 56, -43, -24, -34, 90, 79, -122, -326, 586, -141, 75, 36, 74, -36, 45, 36, -256, -82, -22, 59, -78, 14, 112, 4, 107, 18, 26, -369, 91, 182, -164, -41, 61, -1, -50, 53, -21, 72, 83, 156, 29, -6, -46, 46, 105, 9, 83, 151, -56, 58, -47, -125, -201, -107, -53, -179, -3, 141, 318, 159, 91, -43, -127, 68, 177, -69, 67, 36, 9, -115, -19, 62, 225, 15, 10, -332, -48, 6, 11, 19, -39, 48, -166, 119, 4, -49, -52, -35, -28, -48, 47, -20, 110, -56, -44, -80, -212, 29, -29, 27, 163, -32, 56, 47, -76, 96, -173, 142, 21, -77, 27, -41, -114, -107, -139, -153, 31, 52, 87, 223, 8, 129, 102, 69, -435, -29, -179, -108, 59, 59, -168, -42, -92, 5, 16, -58, 192, 40, 57, -81, -61, -137, 40, 66, 57, -6, -67, -165, 194, 13, 139, -15, -36}, {8, 116, 61, 33, -10, 73, -1, 344, -36, -72, -272, 117, -35, -55, -74, 48, -62, 62, -47, -233, 0, 35, 65, -97, 266, 37, -67, 179, -20, -131, -4, -163, -68, -46, 30, -32, 377, 22, -40, -84, 52, -54, -141, 76, 19, 20, -41, 38, -78, 56, -20, 194, -148, -174, -40, -108, -19, 4, 121, -27, -48, -9, -35, -54, -4, 63, -60, 155, 812, -135, -56, 0, 86, 24, -39, 89, -464, 14, -34, -65, 147, -9, 341, 61, 6, -28, -56, 28, -131, -61, -16, 300, 5, 48, -2, 42, -13, 107, -69, -53, -624, 111, -108, 46, -5, -57, -20, 175, 81, -39, -323, -23, -94, -158, 11, -24, -475, 25, 17, -203, -369, 202, 51, -210, 1, 187, -84, -36, 82, 116, -377, 30, -80, 466, 50, 31, -72, 116, 14, 65, 160, -70, 70, -50, -31, -134, 74, 101, -25, 84, 124, -29, -37, -34, 128, 34, -91, -79, -89, -60, 31, -17, 55, 33, -84, 99, 162, -116, 128, 41, 37, -49, -56, 0, 26, -390, 7, 64, -218, -476, -29, -57, 25, -66, -186, -49, 44, 176, 61, -21, -11, -82, 94, 46, 27, 29, -61, 700, 0, -61, -14, -50, 12, 8, -18, -36, 34, -28, 61, -159, 106, -50, -135, 49, -68, -164, -133, -98, -32, -18, -37, 28, 104, 18, -101, 67, 66, -14, 11, -17, -29, -27, 66, -147, -19, -67, 159, -70, -112, 72, 36, -3, -159, 74, -108, 47, 131, 43, 64, -50, -53, 85, 56, 30, -54, 107}, {86, -25, 71, 10, 18, -123, 20, 417, 54, -71, 25, 24, -450, -61, -61, -265, -51, -9, -13, -14, 4, -27, 56, -56, 151, 91, -27, -42, -33, 64, -108, 8, -24, -251, -7, -55, 5, -25, 46, 40, 110, 26, -98, 57, 50, 31, -95, 123, 39, 47, 28, -5, -43, -145, -19, 26, -19, 380, 23, -11, -25, -135, -89, -37, 51, 43, 18, 212, -66, -163, -77, -5, -9, 32, -46, 68, -450, -25, -59, -117, 71, 93, 218, 23, 25, -43, 90, 14, 598, -360, 9, 319, -7, 0, 6, 105, 22, -147, -68, -88, -50, 54, 50, 50, -6, -66, 93, -40, 106, 75, -10, 6, -92, -64, 40, -21, -5, -594, -51, -192, -249, 34, 99, -33, 44, -127, -77, -115, -26, -16, 5, 11, -35, -6, -31, 43, -38, 5, -67, -132, 134, 93, 58, 38, -4, -117, 189, 98, 17, 102, 87, 103, 45, -108, 62, 32, -83, -62, -82, 214, 44, 0, 24, 49, -23, 10, 267, -21, -50, 17, 34, 284, 172, -73, 80, 76, 21, -15, 20, -76, 64, -5, -9, -76, 145, -45, 17, 74, -76, -89, 31, 96, -34, -526, 323, -310, -32, 11, -83, -9, 38, -419, 99, 111, 81, 31, -212, -332, -30, 0, -6, -314, -107, -26, -53, 12, -17, -114, -59, 19, 503, -32, 24, -19, 37, 100, 56, -24, 33, 15, -9, -1, 45, -130, 27, -13, 38, -83, 18, 14, -193, 0, -159, 34, -91, -8, 40, 8, 39, 8, -56, -14, 57, 68, 10, 40}, {-62, -4, 54, 12, 25, -101, 194, 475, 59, -74, 29, 31, -159, -44, -53, -202, -64, 39, -115, -15, 51, -94, 75, -73, 135, 115, -55, -37, 26, -127, -76, 0, -31, -625, 13, 26, -47, -24, -64, 52, 83, 5, -43, 165, 68, 48, 382, 146, -63, 49, 19, -14, -42, -106, 15, 33, 4, 44, 13, 18, 1, -239, -12, -49, -98, 45, 37, 271, -107, -76, -88, -21, -1, 56, -31, 51, -484, 9, 31, -86, 4, 8, 254, 37, 29, -49, 663, 29, -162, -328, 15, 318, -188, 58, 128, 19, 38, -187, -102, -165, -45, 3, -14, 120, 21, -33, -90, -8, 107, 69, 43, -12, -293, 28, -12, -29, 47, -162, 6, -220, -270, -116, 19, -55, -24, -77, -72, -69, -67, -41, 53, 35, 4, 1, 0, 39, -57, 43, -11, -17, 77, 93, 74, -754, -23, -134, 1, -22, 5, 99, 108, 52, -48, 11, 44, 41, -57, -64, 43, -36, 84, 50, -16, 61, -71, -2, 230, 26, -36, -79, 34, 435, 298, -23, 66, 4, -15, 10, 20, -67, 36, 10, -23, -50, 127, -36, 25, 26, -81, -119, 21, 40, 37, 110, -831, 60, -42, 4, -53, 73, -19, -196, 71, 87, 83, 24, -142, -459, 11, 0, -2, -314, -70, 19, -33, -65, -108, -108, -70, 0, -141, 8, 69, 11, -55, 407, 74, -6, 35, 22, -11, -496, 45, -177, -25, -51, 64, -338, -19, 16, -178, 4, 359, 39, 91, -151, 22, -533, 51, -29, -109, 4, 10, 78, 39, 42}, {32, 23, -76, -1, -485, -109, 111, 455, 32, -73, 22, 21, -142, -15, -58, -213, -67, 193, -119, -34, 52, 11, 69, -114, 84, 135, -58, -34, -32, 1213, -59, -15, -67, -536, -31, -37, -20, -5, 30, 2, 13, 28, -89, 12, 76, -19, -45, 70, 178, 60, 32, 7, -91, -143, -41, 5, 12, -58, -19, -17, -22, 151, -9, -43, -33, 40, 76, 247, -67, -138, -85, -63, -23, -703, -30, 28, -460, -121, -786, -95, 38, 42, 277, 173, 10, -37, -127, -4, -95, -415, 225, 322, -27, 65, -620, -518, 30, -333, -56, -87, -36, 7, 50, 147, 0, -50, -56, -70, 80, 78, 41, 42, -335, -25, -83, -120, 13, 62, 170, -217, -388, -24, 106, -52, -54, -75, -69, -201, -94, -31, 138, 47, -174, 29, -28, 10, -25, -16, -61, -146, 39, 54, 91, 170, -7, -154, -33, -552, -34, 81, 115, -32, 0, 153, 7, 100, -43, -56, -45, 70, 79, 18, 17, 44, -144, -40, 204, 16, -122, 1, 45, 215, -29, -28, 1, 50, 157, -4, -33, -71, -90, -18, 361, -59, 102, -76, 5, 49, -24, -64, 12, 30, 2, 145, 184, -39, -171, -15, 98, 59, -1, -31, 32, 11, 91, 19, -121, -388, 22, -7, -13, -343, -137, 5, -65, -40, -11, -96, -79, -17, -4, -44, 49, 16, 39, 163, 69, -13, 59, 24, -184, -116, 41, -134, -65, -61, -143, -87, 12, -10, -56, -63, -99, 52, -284, -129, 26, -3, 41, -38, 141, 33, 15, 109, 110, 47}, {-66, 101, 16, -1149, -66, -68, 4, 449, 40, -55, -29, 14, -120, 10, -58, -203, -66, -109, -234, -64, 119, -83, -811, -72, 138, 21, -108, -80, -310, -265, -82, -20, -9, -426, -51, -85, -70, -2, -192, -24, -98, -19, -170, -241, -101, -779, 64, 152, -243, 52, 46, -28, -97, -121, -4, 122, 25, -133, -13, -7, -183, -752, -103, -33, -117, 38, 0, 297, -96, -20, -85, -8, 0, 250, -44, -35, -475, -96, 191, -35, 50, -23, 279, 209, -31, -69, -63, -14, -73, -301, 99, 317, -1, 37, 67, -81, -591, -136, -85, -159, 32, -29, -38, 142, -38, -10, -32, -30, 73, 50, -54, -6, -4, -117, -50, -45, 0, 63, 642, -232, -250, -76, 32, -42, -115, -3, -70, 348, -26, 69, 136, -707, -215, 62, 3, 58, -47, -55, -48, -94, 116, 72, 33, -799, -909, -117, 40, 6, 41, 88, 117, 3, -118, 136, 26, 3, -38, -55, 131, -101, -677, -7, 19, 21, -72, 60, 148, -33, 290, -437, 25, 123, -30, -36, -118, -65, 7, -2, 43, -60, -14, -58, -63, -37, -18, -29, -47, 47, -147, -92, -94, -59, 80, 48, -75, 41, 3, -71, -295, 146, -468, -73, 118, -81, 66, 38, -20, -387, 112, -32, 18, -145, -79, 15, -24, -19, -48, -103, 98, -53, -1, 26, -20, -17, 3, 224, 54, -29, 68, 18, 232, -27, 46, -174, -39, -92, 72, -64, -23, 10, 36, -46, 114, 200, 1142, -103, 0, 126, 12, -6, -284, 47, 527, 130, 33, -62}, {-97, -21, -223, 29, -12, -65, 29, 430, 6, -79, -74, 74, -64, -68, -67, -287, -59, 159, -193, -127, 54, -7, -34, -265, 255, 60, -236, -40, 18, 122, -1, -32, -25, -539, -10, -53, -18, 8, -110, 7, 46, 18, -135, 46, 86, -27, -7, -9, -69, 53, 477, 140, -52, -196, -62, -31, 9, -28, 88, 11, 41, 156, -506, -47, 12, 45, -8, 287, -106, -145, -76, -24, -26, -654, -51, 80, -508, 315, -735, 0, 89, -70, 282, 207, -18, -41, -31, 10, -110, -371, 163, 321, 64, -352, -23, -5, -2, -15, -52, -161, -5, -132, 106, 128, 21, -72, 2, 12, 69, 18, -49, -68, -28, -50, -83, -87, 41, 49, 441, -226, -237, 13, 3, -70, -57, -95, -58, 211, -92, -79, 134, 199, -109, 16, -42, -6, -48, -27, -80, -88, 21, 51, 47, 46, 15, -151, 44, 75, 66, 77, 109, -32, -64, 70, -757, -118, -17, -59, -46, -44, 223, 11, 17, 234, -78, -24, 144, 132, -809, -10, 29, -45, -19, -48, 2, -32, 24, -677, 3, -78, -32, -436, -36, -41, 13, -65, -18, -105, -13, 1, -172, 7, 35, 0, 33, 35, -42, -66, 1110, 71, 21, -37, 166, -80, -843, -212, 10, -125, 149, -101, 39, -55, -53, -17, -33, -94, -126, -109, -315, -117, -29, -820, -12, 81, -521, 71, 72, 26, 52, 17, -169, -6, 37, -99, -35, -127, -37, -83, -430, 244, -8, -148, -56, 100, -443, 0, 20, -18, 12, -83, 161, -895, -19, -109, -914, -111}, {14, 151, -35, 130, -33, -113, 9, 408, 162, -58, -138, -31, -71, -148, -62, -52, -58, 55, -44, -247, -9, -49, -9, -126, 270, 29, 5, -50, -16, -89, 21, -82, -45, -435, 61, -112, 28, -53, -104, 91, 95, -757, -94, -68, 36, 81, -13, 65, -68, 60, 47, 111, -85, -127, -6, -7, -825, -53, -54, 50, -216, -145, -96, -47, 10, 49, 364, 309, 19, 5, -73, -44, 19, 75, -23, 8, -510, -366, 26, -60, -165, -62, 280, 114, 8, -49, -141, 34, -143, -328, 82, 308, -29, -18, 26, 2, 32, 16, -79, -32, -45, -2, 17, 153, -133, -35, -10, 12, 48, -43, -230, -193, -12, -124, -60, -7, 97, 66, 187, -225, -691, 126, -6, -45, 8, -34, -59, 72, -36, -724, 86, -844, -79, 190, 18, 64, -56, -97, -45, -48, 34, 69, 33, 29, -27, -13, 21, 82, -102, 69, 111, 28, -46, 41, 157, -134, -42, -58, -73, 0, -690, -78, 14, -43, -93, -51, 83, -853, 316, -12, 39, -79, 11, -95, 100, -28, 26, -6, -114, -78, 3, -96, -36, -42, 11, -1, 24, -222, -73, -44, -47, 28, -415, -18, 43, 34, -2, -41, -289, -231, -35, -11, 10, 23, 111, -3, 29, -8, 149, -168, 3, 75, -64, -10, 8, -104, -133, -112, 1104, -54, -28, 76, 28, -6, 17, 7, 91, -45, 90, -87, -20, 12, 51, -155, -12, -105, 150, -35, -93, 136, 38, -20, -69, 263, 17, 3, 0, 32, 164, -52, -65, 53, 41, 249, -16, -82}, {46, 71, 118, -47, 15, -41, -26, 413, 24, -93, -506, 61, -33, -73, -52, -478, -60, 35, -94, -152, -40, 136, 7, -6, 256, 29, -281, -119, 27, -128, 49, -109, -23, -876, 107, -58, 143, -29, -25, -92, 79, 121, -187, 49, 83, 34, 3, 50, -60, 60, 73, 43, -99, -192, -118, -10, 23, -41, 74, -27, 124, -79, -47, -60, 41, 48, -55, 335, 233, 8, -65, -83, -90, 65, -58, 58, -516, 5, 119, -52, -53, -88, 206, 74, 9, -51, -67, 52, -73, -356, 147, 337, -22, -328, 2, 22, -15, 30, -42, -67, -154, -37, -213, 132, -583, -45, -4, 142, 54, -155, -213, 710, -17, -99, 61, -82, -28, 110, 9, -243, -174, 35, 47, -65, 53, 25, -58, 79, 8, -44, 19, -2, -4, -1120, 36, 17, -32, -240, 15, -40, 37, 79, 60, 72, 19, -65, 13, 66, -30, 85, 124, 6, -12, -42, -493, -98, -24, -73, -71, -17, 75, 266, 213, 145, -57, -184, 131, 167, -218, 38, 33, -81, -62, -46, 58, 112, 46, 10, -175, -166, -29, 0, -32, -53, -82, -12, 89, -20, 70, -55, 103, -4, 27, -35, -5, 93, -14, -1, 166, 61, 55, 20, -45, 137, 19, -57, 0, 93, 244, -237, 0, 61, -69, -9, -37, -51, -46, -123, -168, -13, 3, 100, 51, 60, -60, 29, 111, -504, -38, -669, -40, 0, 53, -96, 98, -69, 120, 39, -84, 561, 28, -7, -23, 136, -74, 43, 85, 51, -169, -139, 16, 90, 0, 73, 87, -31}, {119, 90, 65, 35, -52, -3, 8, 327, -33, -49, -152, 45, -8, -23, -55, -62, -31, 12, 4, -148, 11, 28, 33, -37, 270, 92, 10, 21, 38, -70, 15, -52, -49, -111, 86, -23, 249, 141, 48, -221, 70, 40, -173, 69, 74, -11, -4, 42, -51, 56, 60, 66, -223, -115, 31, -5, -50, -31, -130, -43, -12, -17, 17, -32, -56, 54, -11, 168, 473, -40, -81, -88, 3, 23, -47, 137, -443, -118, -40, -79, 87, -56, 239, 16, 25, -35, -101, 77, -37, -258, 29, 312, 28, 50, -4, 0, 16, 20, -38, -75, -554, 43, -120, 49, -19, -30, -8, 157, 26, -119, -331, -204, -7, -137, -30, -27, -624, 59, -30, -221, -573, 130, -13, 70, 2, 32, -64, 62, -61, 74, -79, 23, -33, 563, 143, 48, -80, -349, 0, 44, 61, -397, 95, 68, 23, -26, 19, 56, -44, 78, 149, 66, 12, -45, 91, 70, -41, -49, -53, 18, 33, 52, 165, 120, -89, 1, 110, -149, 104, 6, 31, -32, 47, -2, 79, -353, 24, -21, -149, -78, 0, -28, -24, -59, -207, -26, 59, 185, 0, -9, 27, 49, 0, 7, 3, 10, 4, 734, -88, -56, -5, 24, -137, 39, -16, 42, 20, 145, 35, -132, 25, -3, -68, -8, -2, -141, -130, -110, 99, -21, -14, 12, 46, 35, 10, 20, 89, -24, -464, 56, 23, -44, 58, -167, -37, -7, 90, 4, -17, 179, 57, 12, 1, 57, -104, 17, 92, 47, 104, -30, 25, 24, -14, 18, -41, 56}, {-57, 6, 92, 12, 10, -119, -373, 434, 56, -54, 21, 1, -293, -56, -48, -141, -49, 23, 5, 28, 23, -160, 64, -85, 155, 115, 3, -57, 42, 42, -55, -56, -50, -391, 18, 5, -43, 6, 2, 5, 141, 52, 1, 66, 43, 56, -320, 150, 170, 44, 7, 21, -149, -87, -12, 36, -17, 26, 15, 18, -9, -115, -37, -31, -5, 34, 32, 181, -31, -113, -74, 0, 9, 29, -47, 74, -429, -65, -91, -85, 21, 109, 93, -10, 47, -49, 181, 75, 614, -263, 16, 308, 7, 0, 32, 3, 28, -24, -68, -115, -20, 64, 27, 58, -6, -48, 177, -4, 97, 77, 7, 44, -70, -50, 110, -4, 85, -599, -51, -182, -222, -56, -21, -17, 46, -55, -64, -45, -41, 29, 68, 24, -42, -13, -24, 51, -51, 4, -15, -110, 121, 129, 82, -71, 31, -127, 117, 79, 37, 92, 95, 180, -113, -116, 46, 32, -28, -47, -7, 300, 64, 16, 21, 31, -31, 18, 172, -18, -39, 12, 32, 137, -922, -11, -3, 65, 0, 27, 9, -34, 71, -10, -50, -56, 123, -30, -16, 121, -57, -52, 30, 181, -18, -872, 451, -808, 29, -11, -17, 23, -22, -140, 114, -526, 66, 40, -61, -285, 9, 9, 0, -269, -52, -135, -44, 2, -44, -120, -25, 5, 467, -3, -12, 29, 9, 209, 41, -41, 40, 1, -56, -54, 29, -151, 13, -51, -13, -32, 23, 8, -293, 18, -101, -18, -60, 10, 23, -154, 35, 100, -25, 20, 10, 95, -10, 23}, {-32, -8, 8, -22, -100, -25, -672, 467, 19, -80, -7, 26, -57, -50, -63, -221, -55, -9, -122, -85, 42, -35, 84, -42, 53, 124, 31, -50, -54, 41, -142, -33, -26, -552, -66, -22, -44, -20, -68, 71, 59, 10, -29, 139, 93, 55, 513, -1, -37, 46, 19, -28, -106, -105, -6, -24, -17, 61, -50, -11, -40, -202, -23, -43, 16, 38, 103, 303, -68, -135, -115, 11, 7, -19, -51, 56, -482, -82, -12, -48, 52, 44, 196, -10, 27, -42, 701, 23, -131, -329, 42, 315, -26, 69, 50, 134, 16, -78, -52, -35, -71, 1, 47, 127, 12, -39, 306, -95, 109, 107, 35, 52, -403, -82, 33, -81, 67, -217, -23, -226, -267, -25, 97, -56, 34, -97, -110, -32, -101, -23, 116, -5, 16, 0, -40, 53, -51, 28, -32, 0, 131, 112, 41, -96, 32, -108, -11, -77, 0, 89, 104, 22, -67, -41, 83, 59, -50, -71, 30, 80, 78, 8, 30, 36, -78, -31, 196, 9, -29, 4, 47, 100, 165, -53, -6, -9, -710, 0, -14, -70, -61, 25, 15, -60, 130, -51, -10, 51, -27, -59, 35, 35, -15, 13, -803, 53, 76, -12, -39, 108, 24, -126, 141, 74, 61, 8, 30, -329, -4, 21, -6, -407, -63, -35, -14, 27, -41, -93, -89, -29, -134, 4, 31, 30, -3, -3, 86, -7, 69, 55, 81, -593, 53, -100, 0, -54, 116, -32, 2, 10, -298, 26, -481, 43, -42, 3, 26, -754, 0, 15, -165, -19, 88, 85, 23, 48}, {-118, 70, 74, -833, -82, -22, -56, 438, 55, -59, -20, 55, -140, -36, -58, -351, -67, 35, -109, -120, 41, -38, 136, -63, 88, 96, -47, -38, -369, 243, 11, -52, -57, -530, -112, -6, -7, 1, 28, 24, -372, 39, -103, -142, -15, -32, -761, 118, 1469, 55, -42, -75, -143, -101, 16, -751, -20, 12, 15, 27, -95, 119, -64, -61, 0, 43, 0, 189, -59, -98, -67, 0, -27, -7, -31, 33, -495, 210, -161, -94, 52, 64, 249, 127, 13, -59, 42, 32, -57, -458, -1, 311, -297, 60, -492, -1, -43, -202, -68, -175, -47, 12, -4, 85, -34, -35, 17, -89, 74, 82, 0, -4, -838, -44, -44, -20, 74, 153, 257, -225, -419, -77, -55, -31, 19, -48, -75, -127, -81, 67, 99, 25, -123, 59, -36, 80, 0, 9, -48, -168, 91, 109, 60, -28, -35, -184, -38, -692, -7, 75, 110, -11, 594, -74, -4, 94, -36, -53, -75, -47, 58, 3, -50, -10, -97, 34, 164, 18, -151, -109, 45, 62, -610, -13, -583, 26, 79, 0, 11, -76, -66, -29, 443, -46, 2, -77, -12, 61, -48, -84, 18, 13, 65, 70, 264, -26, 400, -54, -122, 111, 41, -111, 86, -649, 52, -34, -94, -192, 75, -9, 39, -245, -60, -26, -4, -68, -6, -108, -25, -4, -52, 29, 4, -49, -36, 169, 81, -4, 39, 70, -96, -3, 46, -132, -55, -35, 79, -126, -2, 6, -142, -38, -15, -26, -35, -29, 6, -105, 32, 37, 279, 14, -770, -3, 20, -46}, {18, 10, -122, 12, -67, -73, 78, 446, 22, -60, 25, 11, -93, -63, -50, -307, -49, -92, -179, -92, 43, -52, -104, -95, 141, 138, -108, -53, -7, -119, -64, -75, -38, -415, -103, -58, -111, -18, 511, -15, -687, 19, -124, 94, -4, -836, 72, -16, -127, 50, -799, -227, -138, -126, -26, 33, 35, -47, -49, -43, -69, -570, -80, -58, -32, 55, -9, 139, -69, -82, -69, -6, 23, 0, -45, -20, -505, -222, 63, -54, 71, 4, 156, 147, -20, -26, -168, -31, -104, -412, 22, 303, -34, -86, 19, -34, -747, -85, -40, -119, 34, 65, 40, 187, -12, -53, -29, -102, 60, 24, -15, 14, -190, -110, -139, -97, 29, 63, 184, -241, -387, -84, 75, -38, -229, -143, -76, 312, -146, 47, 125, -97, -11, 38, -40, 14, -61, 4, -114, -37, 77, 1, 112, -161, -98, -46, -189, 0, -246, 102, 110, -49, -73, -41, -45, 43, -47, -65, -119, -62, -55, -7, 49, -122, -99, 1, 168, -30, 306, -37, 49, -30, -42, -5, 380, -56, -679, 32, -9, -56, -68, -133, -96, -50, 121, -46, -103, -21, -31, -46, -131, -42, 41, 91, -106, -18, -30, -7, 28, 117, 172, -19, 104, -165, 0, 30, 81, -261, 102, 1, 39, -18, -72, -23, -57, -43, -35, -94, -122, 9, -15, 50, -61, 80, -674, -1, 73, 5, 87, 49, 1394, -66, 52, -86, -23, -54, 103, -67, -200, 12, -49, -365, -142, 108, 116, -44, 7, 41, 74, 34, -638, -12, 295, 14, 8, -172}, {4, 11, 22, 52, 15, -127, 52, 472, -790, -62, -58, 38, -98, -138, -59, -318, -58, 51, -99, -69, -1, 23, 108, -250, 169, -11, -86, -68, -118, -84, -1, -14, -16, -523, -18, -40, -29, 9, -32, 8, -116, 18, 18, -60, -527, 4, -85, 92, 39, 48, 43, -52, -74, -141, -52, -698, -11, -57, -81, 26, -6, 123, -1018, -68, 5, 46, -235, 240, -52, -57, -49, 20, -38, -63, -36, -24, -557, 1288, -195, -37, -35, -33, 246, 152, 5, -50, -43, -2, -60, -420, 26, 301, 105, 2, 12, -46, -34, -90, -93, -148, -40, 93, 21, 117, -39, -31, -37, -20, 61, 42, 0, -52, 38, -81, -55, -61, 53, 70, 307, -232, -261, 71, 8, -59, -42, -81, -90, 144, -49, -117, 123, 36, -115, -11, -16, 65, -43, 19, -74, -85, -92, 89, 67, -49, -810, -135, 8, 92, 262, 72, 116, -4, -178, -31, -158, 1, -90, -50, -59, -132, 41, 37, -119, 109, -90, -4, 120, 190, -795, -688, 34, 9, -28, -70, -573, -74, 0, -53, 19, -51, -4, -363, -58, -38, -27, -47, -12, -691, -40, -48, -340, 159, -879, -20, -5, 0, -60, -137, 40, 94, 39, -2, 207, -121, -507, 507, 28, -115, 186, -45, 74, 46, -81, -39, -70, -81, -52, -113, -22, -61, 3, -30, -45, -35, -8, 102, 61, -14, 8, 66, -223, -91, 48, -131, -63, -81, 122, -83, -34, 8, 7, -244, -64, -89, 4, 17, 21, 84, 5, -41, 417, -899, -725, 1105, 9, -200}, {-148, -16, -390, -6, -7, -185, 28, 430, 127, -67, -74, -36, -77, -127, -57, -163, -49, -24, -24, -78, -104, -25, -32, -82, 165, 37, -49, -55, 32, -4, 5, -63, -27, -490, 103, -98, -617, 94, -93, 43, 62, -38, -148, 31, 72, 40, 21, 27, -96, 57, -781, -56, -14, -149, -88, -52, -503, -46, -61, 86, -2, -106, -121, -56, 12, 46, 617, 227, -64, 44, -68, -113, -83, 40, -35, 10, -529, -160, -6, -52, -148, -213, 213, 81, 47, -22, -71, 26, -104, -364, 51, 342, -22, -155, -12, 52, -4, -11, -7, -8, -113, 230, -202, 130, 399, -53, -19, 50, 35, 0, -131, -122, 46, -86, -17, -13, 53, 105, 99, -238, -659, 140, 10, -18, -21, -118, -39, 2, -118, -870, 121, -121, 13, 254, -18, 1, -58, -113, -60, -44, -111, 62, 44, 10, -94, -15, -9, 56, -477, 59, 118, -33, -64, -28, -1, -83, -7, -50, -30, -2, -21, 75, -866, 668, -16, -74, 117, -804, 329, 49, 31, -63, -2, -109, -10, -59, 25, -472, -93, -100, -26, -94, 12, -46, -24, -60, 7, -651, 5, -65, -19, -14, -8, 5, 50, -10, -10, -50, 24, -73, -16, 17, 134, -22, -57, -42, -15, 46, 231, -100, 47, 71, -77, -21, -48, 14, -39, -111, 63, 58, -4, 101, 38, 96, -50, 74, 101, -77, 81, -105, 214, -75, 53, -83, 314, -50, 135, 45, -54, 34, 25, 124, 8, 100, -171, 52, 3, 22, 6, 14, -153, 40, -13, 45, -762, -162}, {119, 44, 163, -9, 11, -89, -2, 477, -644, -65, -439, 22, -44, -72, -63, -578, -65, 46, 18, -119, -124, 76, 58, -20, 231, 65, -111, -106, 34, -52, 27, -35, -26, -746, 149, -7, 199, 216, 31, -13, 57, -765, -256, 18, 77, 63, -17, 23, -94, 57, -39, 47, -62, -176, -118, -51, -24, -34, 22, 18, 11, -61, -7, -43, -34, 49, -344, 221, 37, 49, -62, 865, 7, -20, -35, 64, -555, 5, 0, -33, -139, -46, 289, 25, 31, -63, -33, 102, -26, -433, 46, 351, -41, 59, -35, 63, 2, -25, -41, -45, -84, -9, -509, 118, -53, -25, -35, 169, 38, -371, -94, 718, 25, -75, 1, 1, -146, 111, -2, -264, -177, 119, 29, -51, 14, -46, -59, 150, -46, -80, 97, -67, -15, -847, 180, 67, -48, -128, -3, -52, -14, -778, 46, 74, 36, -59, 31, 74, -57, 65, 169, 25, -1, -22, -99, 0, -105, -62, -8, -32, 2, 35, -12, 20, -98, -94, 125, 193, -72, 29, 29, -65, -11, -111, 72, -22, -3, -50, -107, -54, 19, -12, -49, -52, 31, -37, 49, -169, 17, -26, 97, -37, 9, -5, 16, 27, -35, 5, -63, -342, -5, -1, -235, 96, 15, -75, 23, 122, 107, -131, 26, 50, -71, -35, 22, -110, -87, -131, -31, -2, 18, 25, 47, -13, 0, 63, 101, -364, -53, -985, -84, -70, 59, -120, -44, -88, 159, -32, -47, 58, 59, -53, -1, 75, -55, 2, 18, 30, 1387, -159, 106, 46, -1, -2, 24, -19}, {190, 1, 75, 12, -19, -87, 49, 377, -1, -50, -182, 19, -47, 15, -39, -121, -33, 30, 52, -16, -61, 36, 57, -65, 216, 46, -40, -20, 14, -51, -2, -53, -59, -326, 95, -16, -594, 88, 42, -418, 60, -141, -212, 21, 95, 3, -6, -11, -32, 55, 41, 19, -128, -159, -5, -38, -14, -30, -4, -39, -4, -39, -44, -38, -78, 42, -68, 127, 101, -39, -47, -96, -139, 0, -67, 73, -445, -165, -16, -46, 52, 14, 231, -13, 44, -34, -73, 72, -25, -314, 98, 308, 35, -3, -37, 34, 2, 29, -16, -54, -409, 72, -280, 18, -11, -30, 22, 155, 38, -42, -312, -90, 57, -115, -25, -23, -1157, 57, -11, -196, -543, 100, 16, 59, 7, 0, -38, 96, -11, 101, 29, -20, 8, 553, 209, 56, -84, -179, 8, 27, 17, -735, 84, 37, -66, -21, 27, 61, -19, 78, 190, 71, 9, -26, 47, 60, -45, -35, -55, 10, 19, 150, -911, 15, -60, -47, 131, -171, 76, -40, 26, -18, -11, -47, 35, -236, 23, 15, -53, -44, -11, 10, -4, -64, -256, -31, 74, 244, 9, -42, 64, -19, -25, 15, -18, 23, -15, 815, -37, -75, -34, 22, -266, 84, -37, -26, 14, 87, 85, -66, 9, 16, -69, -56, -40, -64, -50, -121, -36, 3, -10, 16, -17, 46, 42, 19, 73, -39, -822, 32, -26, -63, 50, -128, 189, -24, 95, 10, -50, 138, 49, 38, 31, 166, -94, 67, 78, 50, -112, 38, 4, -9, 21, 101, 3, 145}, {-13, 8, 73, -6, -16, -30, -456, 434, 67, -41, 3, 57, -74, -39, -41, -82, -39, 38, -24, 40, 52, -96, 28, -77, 168, 84, 11, -51, -12, 8, -21, -48, -14, -383, 14, 3, -16, 5, 31, 22, 136, 22, 77, 103, 50, 31, -184, 170, 41, 43, 10, 5, -232, -135, -13, 18, -19, 61, 8, -6, 35, -115, -27, -27, 30, 38, 5, 149, 29, -260, -53, -1, 12, 38, -43, 127, -411, -50, -13, -110, 30, 80, 123, 3, 33, -28, 215, 38, 615, -287, 34, 312, 33, 15, -16, 19, 34, -65, -68, -100, -12, 39, 45, 10, 0, -45, -880, 12, 93, 71, 8, 18, -153, -78, 140, -30, 74, -652, -36, -162, -217, -29, 33, -9, 31, -75, -59, -6, -55, -1, 44, 30, -18, -4, -27, 73, -58, 23, -29, -107, 108, 114, 34, -45, 11, -79, 45, 123, 59, 112, 126, 228, -93, -58, 54, 51, -53, -39, 11, 286, 67, 8, 25, 44, -9, 24, 249, -42, -59, 18, 35, 63, -89, -4, 4, 27, 2, 10, 39, -45, 37, 28, -67, -47, 155, -23, -27, 94, -55, -58, 22, 130, -9, -842, 345, -734, -19, 23, -27, 0, 1, -123, 90, 11, 44, 13, -39, -220, -3, 15, -16, -289, -45, -271, -42, 0, -4, -118, 0, 35, 544, 0, -2, 37, 32, 32, 40, -21, 26, 10, 8, -49, 34, -163, 18, -44, -41, -31, 14, 37, -254, 17, 18, -6, -66, -9, 66, -42, 36, 85, -53, 11, 7, 83, 0, 43}, {-150, 19, 76, -38, -11, 83, -577, 496, 21, -60, 6, 31, -139, -81, -45, -288, -45, 42, -85, -95, 65, -213, 42, -83, 180, 114, -3, -42, -37, 72, 12, -65, -25, -540, -93, -41, -8, -32, 22, 17, 12, 32, 68, -898, 78, 45, 757, 105, -48, 45, 5, -26, -163, -101, 35, -32, -2, 80, -1, 32, -17, -144, -23, -50, 19, 33, -27, 138, -10, -146, -61, -3, -21, 87, -75, 91, -500, 42, -10, -44, 59, 78, 247, -41, 22, -41, 611, 15, -81, -382, 0, 305, -99, 47, -56, 39, 16, -166, -57, -78, -32, -1, 44, 22, 2, -42, 90, -83, 90, 75, 28, -1, -396, -43, 140, -60, 98, -662, 52, -215, -362, 88, 10, -23, 2, -47, -67, -443, -50, -45, 105, 32, -1, 28, -20, 51, -58, 30, -45, 0, 85, 44, 73, -112, 0, -86, -1, -22, -47, 89, 121, 101, 41, -30, 48, 68, -48, -52, -76, -57, 97, 6, 13, 49, -50, 12, 212, 62, -28, 0, 26, 39, 101, -37, -42, -19, -83, -11, 27, -47, 15, -16, 42, -60, 212, -19, 27, 18, -35, -87, 51, 320, 37, -22, -858, -92, -580, -55, -14, 57, -34, -184, 95, -91, 88, -9, -93, -221, 28, 4, -11, -552, -71, -198, -3, -28, -80, -109, -37, -29, 8, 9, 23, 0, -87, 114, 49, -20, 46, 21, 20, -10, 40, -183, -1, -47, 199, -75, 0, 23, -270, -56, -287, 41, -54, 66, 50, -870, 10, 3, -117, 8, 48, 46, -21, 45}, {-63, 25, 69, -56, -88, -61, -462, 441, -29, -57, 3, 19, -103, -64, -56, -203, -47, 36, -13, -157, 16, 0, 51, -49, 102, 156, 14, -26, -52, 26, -45, -53, -50, -358, -181, -57, -3, 34, -229, 18, -397, 47, 100, -1, 51, 23, -616, -4, 52, 54, 60, -78, -128, -95, -62, -43, 3, 2, 41, -43, -11, 55, -8, -60, 18, 49, 65, 113, 29, -114, -70, 30, -64, -52, -32, 40, -471, -5, -146, -71, 131, 104, 37, 72, 45, -40, 116, -27, -20, -310, 4, 320, 5, 29, -232, 60, 39, -19, -24, -100, -38, -11, 22, -5, 28, -41, -402, -179, 90, 131, -1, 2, -582, -92, 133, -52, 81, 99, 5, -208, -261, -3, 53, -20, 4, -69, -37, -199, -66, -1, 114, 18, -122, 53, -49, 64, -21, 78, -26, -151, 84, 91, 62, 41, -17, -105, 65, -590, -198, 76, 127, -18, -68, -66, -13, 55, -46, -38, -450, -5, 75, 41, 23, -52, -53, -13, 163, -21, -179, 20, 72, 77, -49, -21, 15, 106, 144, 21, 10, -38, -122, 46, 666, -42, 62, -50, -25, 104, 7, -30, 55, -4, -5, 70, 109, -44, 254, -47, -125, 85, -710, -31, 118, -184, 69, 39, -24, -203, 34, -45, 10, -303, -76, -88, -3, 46, -41, -84, -30, 15, 112, 4, 12, 61, -23, -18, 86, 5, 77, 35, -22, -52, 53, -120, -31, -61, -18, -107, -42, -19, -131, 37, 128, 47, -47, -76, 36, -85, -4, 61, 296, 12, -189, 18, 23, -2}, {-240, 11, 48, 29, -18, 46, -157, 405, -239, -45, -55, -3, -112, -114, -35, 114, -34, -108, -172, -122, 30, -229, -148, -85, -182, 335, -60, -14, -75, -37, -38, -52, -173, -133, -240, -78, -63, 60, 346, 60, -693, 137, -9, -330, -46, -753, 143, 137, -108, 47, -92, -188, -85, -173, 19, 178, 68, -11, -25, -22, -17, -521, 119, -54, -55, 54, -24, 275, -37, -44, -46, -35, 13, 221, 22, 35, -488, -224, 1, -108, 47, 45, 25, 134, 79, -39, -94, -7, -98, 28, -21, 240, -518, -7, -39, -80, -657, -125, -22, -87, -90, -536, 53, -204, 62, -49, 87, -16, 132, 50, -25, -5, -135, -123, -111, -78, 21, 116, 67, -175, 26, 46, 67, -20, -200, -146, -84, 25, -81, 103, 84, -103, -113, 91, -54, 76, -56, -12, -109, -212, -65, 12, 65, -191, -5, -48, -80, 47, -433, 98, 103, -151, 53, 14, 37, -1, 39, -61, 90, 54, -117, 42, 28, -45, -101, 23, -10, -152, 284, -26, 93, -111, -12, 41, -84, 32, -126, 44, 31, -34, -10, -108, -233, -85, 350, -10, -100, -233, -18, -116, -67, 385, -726, 17, -117, 21, -443, -51, -43, 205, 104, -20, 78, -426, 97, -495, 93, -245, 168, -61, 10, 119, -53, 154, -113, 69, 10, -47, -177, -161, -20, 5, -11, -14, -88, 71, 77, -30, 115, 109, 815, -18, 42, -157, 109, -77, 83, 30, 20, -21, -53, -7, -64, -1, -69, -83, 47, 104, 53, 67, -420, -48, 297, 303, -61, -81}, {468, -9, -320, 0, 74, -206, 28, 453, -126, -70, -7, -6, -116, -109, -64, -72, -44, 13, -87, -148, -169, 164, 5, -118, -44, 129, -84, 44, -26, -92, -40, -14, -60, -207, 2, 25, 51, 102, -412, 6, -158, 62, 109, 54, -5, 65, -85, -12, -8, 45, 194, -170, -15, -123, -160, -164, -184, -12, -170, 78, 15, 59, -904, -115, 23, 48, -165, 148, -65, -14, -82, -70, -132, -133, -40, 161, -533, 31, -104, 1, -85, 107, 228, 131, 105, -63, 37, 3, -35, -125, 57, 310, 171, -2, 89, -95, 82, -183, -77, -140, -79, -20, 81, -188, -179, -64, 49, 131, 85, 130, 88, -26, 58, -103, -147, -74, 106, 12, -50, -218, -113, 212, 10, -26, -42, -168, -72, 76, -108, -139, 66, -52, -42, -12, -41, 21, -39, 38, -95, -198, -209, 101, 121, -53, -165, -156, -132, 102, -86, 88, 98, -92, -121, 20, -51, 3, -30, -38, -467, -22, 187, -477, -134, 67, -48, 21, 165, 252, -689, -15, 55, -3, -18, -143, -270, -5, -150, -43, 4, -46, 24, -368, -8, -52, -128, -58, -66, -383, 10, -21, -614, -62, -24, -3, 16, 12, -5, -111, 103, 228, -673, 33, 255, -18, -279, 203, 51, 59, 216, 21, 38, 118, -24, 59, -461, 18, 1, -89, 4, 40, -59, -78, -66, 40, -5, 12, 63, -94, 78, 31, -186, -87, 34, -100, 31, -80, 167, -32, -92, 7, 36, 118, -2, -45, 34, 47, 67, 70, 59, -73, 416, -776, -291, -106, 26, -290}, {-50, -19, 143, -25, -22, -226, 36, 496, 56, -48, -134, 12, -78, -138, -59, -221, -57, 51, -9, -100, -329, -6, 11, -96, 230, 42, 5, -18, -35, 7, 16, -36, -56, -569, 171, -17, -82, -560, -17, 2, 81, -24, -155, -25, 98, 62, -9, 51, -80, 48, -99, -54, -66, -151, -50, -85, -130, -3, -21, 88, -26, -42, 17, -39, -18, 41, 783, 148, -7, 49, -54, -71, -18, 42, 1, 118, -549, 34, -32, -14, -36, -47, 275, 76, 42, -40, -136, 49, -127, -433, -3, 365, -30, 25, -39, 18, -5, -118, -41, -49, -72, -955, -212, -12, 127, -29, -29, 157, 44, 197, 118, -34, 65, -44, -87, -10, 96, 61, 95, -263, -695, 67, 22, -65, -22, -60, -40, -28, -72, -1398, 126, -128, 5, 141, 73, 67, -74, -60, -39, -19, -128, 21, 74, 1, -330, -35, -4, 104, -373, 47, 140, 16, -29, -13, -1, -23, -40, -56, -119, -129, -70, 20, -120, -86, -78, -55, 129, -880, 272, -1702, 36, -36, 0, -80, -37, -89, -27, -52, -110, -76, 15, -59, -58, -50, 21, -47, 81, -659, 10, -43, 61, -112, 15, 45, 56, -22, 4, -32, -47, -226, -61, 15, 354, 130, -155, -347, 20, 87, 144, -348, 82, 114, -34, -128, -44, -83, -50, -127, -160, -73, -29, 41, 31, -28, -3, 47, 88, -80, 44, 208, 31, -87, 47, -111, 78, -57, 155, 8, 0, 14, 47, -142, -21, -12, -71, 40, 12, 44, 141, 773, -103, 23, -27, 311, -9, -290}, {400, 7, -602, -30, 0, -178, 10, 522, -120, -66, -235, -1, -52, 2, -61, -484, -48, 50, 34, -137, -285, 97, 30, -42, 288, 61, -41, -112, 65, -15, 22, -35, -66, -697, 153, 21, 243, 81, -40, -66, 96, -60, -166, 79, 83, 32, 10, 49, -80, 58, -47, 98, 65, -194, 1091, -55, -171, -43, -41, 21, -6, -75, -79, -48, -4, 50, -316, 135, 103, 11, -41, -288, -119, 26, -7, 93, -551, -163, 19, -58, -144, 12, 332, -21, 55, -42, -40, 121, -21, -393, 47, 368, -40, 21, -5, 60, 40, -82, -48, -40, -113, -123, -692, 6, -154, -40, -62, 212, 45, -532, 12, 772, 53, -74, 6, 16, -158, 93, 47, -253, -237, 170, 38, -60, 1, -31, -25, 154, -29, 39, 147, -56, 17, -707, 241, 31, -52, -137, -25, -41, -27, -846, 73, 63, 41, -87, 30, 71, -166, 64, 182, 52, -28, -13, -140, 30, -100, -51, -86, -78, 20, -694, -31, 81, -50, -92, 166, 226, -12, -3, 19, -2, 13, -132, 14, -41, -45, -349, -100, -47, 31, 15, -55, -41, -262, -27, 231, -111, 31, -49, 66, -76, -21, 0, 57, 23, -39, 51, -72, -155, -49, 21, -240, 58, 9, -11, 27, 45, 101, -801, 39, 44, -57, -168, -13, -112, -62, -137, -13, -38, -2, 34, 21, 78, -54, 75, 92, -282, 29, -741, -12, -78, 48, -137, 24, -67, 245, -40, -53, 7, 83, 76, 10, 88, -75, 17, 64, 24, -239, -189, 77, 28, -6, 61, 8, 3}, {112, 15, 147, -10, -18, -197, 20, 397, -20, -35, -317, 12, -22, -14, -36, -137, -30, 15, 30, -32, 12, 8, 36, -47, 279, 109, 20, -24, 51, -38, 33, -48, -78, -325, 76, -7, -127, -779, 50, -47, 40, -123, -172, 27, 62, -41, 17, 23, -49, 40, 15, 5, -45, -155, -12, -19, -34, -31, -57, -7, -10, -28, -35, -48, -34, 33, -158, 49, 65, -72, -39, -102, 3, 6, -45, 100, -439, -125, -16, -43, -17, 91, 220, -5, 39, -32, -91, 100, -34, -338, 41, 305, 33, 0, 2, 11, 19, 31, -35, -87, -393, 39, -159, -9, 57, -30, 9, 160, 31, -55, 29, -65, 41, -136, -11, -17, -1176, 95, -56, -184, -523, 84, 33, 48, -8, -10, -8, 146, -30, 107, 21, 4, 1, 478, 193, 63, -97, -133, 11, -10, 13, -894, 50, 42, -34, -7, 24, 30, -42, 84, 198, 151, 5, -51, 2, 82, -13, -27, -32, 28, 10, 86, -123, 40, -84, -26, 134, -166, 81, 6, 14, -21, -4, -30, 71, -208, 27, -42, -23, -18, 1, 28, -7, -49, -187, -36, 302, 184, -21, -23, 5, -29, -55, 10, -4, 7, -19, 787, -35, -145, -6, 44, -397, 63, 2, -16, 26, 43, -4, -1006, 15, -59, -75, -147, -64, -65, -54, -127, -22, 7, -1, -13, 9, 10, 50, 54, 51, -88, -1095, -1, -2, -57, 38, -168, 53, -27, 102, -6, -44, 40, 78, 38, 14, 97, -94, 63, 91, 26, 61, 100, -5, -34, 48, 47, 17, 103}, {0, 0, 0, 0, 0, 0, 0, 0, 0, 0, 0, 0, 0, 0, 0, 0, 0, 0, 0, 0, 0, 0, 0, 0, 0, 0, 0, 0, 0, 0, 0, 0, 0, 0, 0, 0, 0, 0, 0, 0, 0, 0, 0, 0, 0, 0, 0, 0, 0, 0, 0, 0, 0, 0, 0, 0, 0, 0, 0, 0, 0, 0, 0, 0, 0, 0, 0, 0, 0, 0, 0, 0, 0, 0, 0, 0, 0, 0, 0, 0, 0, 0, 0, 0, 0, 0, 0, 0, 0, 0, 0, 0, 0, 0, 0, 0, 0, 0, 0, 0, 0, 0, 0, 0, 0, 0, 0, 0, 0, 0, 0, 0, 0, 0, 0, 0, 0, 0, 0, 0, 0, 0, 0, 0, 0, 0, 0, 0, 0, 0, 0, 0, 0, 0, 0, 0, 0, 0, 0, 0, 0, 0, 0, 0, 0, 0, 0, 0, 0, 0, 0, 0, 0, 0, 0, 0, 0, 0, 0, 0, 0, 0, 0, 0, 0, 0, 0, 0, 0, 0, 0, 0, 0, 0, 0, 0, 0, 0, 0, 0, 0, 0, 0, 0, 0, 0, 0, 0, 0, 0, 0, 0, 0, 0, 0, 0, 0, 0, 0, 0, 0, 0, 0, 0, 0, 0, 0, 0, 0, 0, 0, 0, 0, 0, 0, 0, 0, 0, 0, 0, 0, 0, 0, 0, 0, 0, 0, 0, 0, 0, 0, 0, 0, 0, 0, 0, 0, 0, 0, 0, 0, 0, 0, 0, 0, 0, 0, 0, 0, 0, 0, 0, 0, 0, 0, 0}, {0, 0, 0, 0, 0, 0, 0, 0, 0, 0, 0, 0, 0, 0, 0, 0, 0, 0, 0, 0, 0, 0, 0, 0, 0, 0, 0, 0, 0, 0, 0, 0, 0, 0, 0, 0, 0, 0, 0, 0, 0, 0, 0, 0, 0, 0, 0, 0, 0, 0, 0, 0, 0, 0, 0, 0, 0, 0, 0, 0, 0, 0, 0, 0, 0, 0, 0, 0, 0, 0, 0, 0, 0, 0, 0, 0, 0, 0, 0, 0, 0, 0, 0, 0, 0, 0, 0, 0, 0, 0, 0, 0, 0, 0, 0, 0, 0, 0, 0, 0, 0, 0, 0, 0, 0, 0, 0, 0, 0, 0, 0, 0, 0, 0, 0, 0, 0, 0, 0, 0, 0, 0, 0, 0, 0, 0, 0, 0, 0, 0, 0, 0, 0, 0, 0, 0, 0, 0, 0, 0, 0, 0, 0, 0, 0, 0, 0, 0, 0, 0, 0, 0, 0, 0, 0, 0, 0, 0, 0, 0, 0, 0, 0, 0, 0, 0, 0, 0, 0, 0, 0, 0, 0, 0, 0, 0, 0, 0, 0, 0, 0, 0, 0, 0, 0, 0, 0, 0, 0, 0, 0, 0, 0, 0, 0, 0, 0, 0, 0, 0, 0, 0, 0, 0, 0, 0, 0, 0, 0, 0, 0, 0, 0, 0, 0, 0, 0, 0, 0, 0, 0, 0, 0, 0, 0, 0, 0, 0, 0, 0, 0, 0, 0, 0, 0, 0, 0, 0, 0, 0, 0, 0, 0, 0, 0, 0, 0, 0, 0, 0, 0, 0, 0, 0, 0, 0}, {0, 0, 0, 0, 0, 0, 0, 0, 0, 0, 0, 0, 0, 0, 0, 0, 0, 0, 0, 0, 0, 0, 0, 0, 0, 0, 0, 0, 0, 0, 0, 0, 0, 0, 0, 0, 0, 0, 0, 0, 0, 0, 0, 0, 0, 0, 0, 0, 0, 0, 0, 0, 0, 0, 0, 0, 0, 0, 0, 0, 0, 0, 0, 0, 0, 0, 0, 0, 0, 0, 0, 0, 0, 0, 0, 0, 0, 0, 0, 0, 0, 0, 0, 0, 0, 0, 0, 0, 0, 0, 0, 0, 0, 0, 0, 0, 0, 0, 0, 0, 0, 0, 0, 0, 0, 0, 0, 0, 0, 0, 0, 0, 0, 0, 0, 0, 0, 0, 0, 0, 0, 0, 0, 0, 0, 0, 0, 0, 0, 0, 0, 0, 0, 0, 0, 0, 0, 0, 0, 0, 0, 0, 0, 0, 0, 0, 0, 0, 0, 0, 0, 0, 0, 0, 0, 0, 0, 0, 0, 0, 0, 0, 0, 0, 0, 0, 0, 0, 0, 0, 0, 0, 0, 0, 0, 0, 0, 0, 0, 0, 0, 0, 0, 0, 0, 0, 0, 0, 0, 0, 0, 0, 0, 0, 0, 0, 0, 0, 0, 0, 0, 0, 0, 0, 0, 0, 0, 0, 0, 0, 0, 0, 0, 0, 0, 0, 0, 0, 0, 0, 0, 0, 0, 0, 0, 0, 0, 0, 0, 0, 0, 0, 0, 0, 0, 0, 0, 0, 0, 0, 0, 0, 0, 0, 0, 0, 0, 0, 0, 0, 0, 0, 0, 0, 0, 0}, {0, 0, 0, 0, 0, 0, 0, 0, 0, 0, 0, 0, 0, 0, 0, 0, 0, 0, 0, 0, 0, 0, 0, 0, 0, 0, 0, 0, 0, 0, 0, 0, 0, 0, 0, 0, 0, 0, 0, 0, 0, 0, 0, 0, 0, 0, 0, 0, 0, 0, 0, 0, 0, 0, 0, 0, 0, 0, 0, 0, 0, 0, 0, 0, 0, 0, 0, 0, 0, 0, 0, 0, 0, 0, 0, 0, 0, 0, 0, 0, 0, 0, 0, 0, 0, 0, 0, 0, 0, 0, 0, 0, 0, 0, 0, 0, 0, 0, 0, 0, 0, 0, 0, 0, 0, 0, 0, 0, 0, 0, 0, 0, 0, 0, 0, 0, 0, 0, 0, 0, 0, 0, 0, 0, 0, 0, 0, 0, 0, 0, 0, 0, 0, 0, 0, 0, 0, 0, 0, 0, 0, 0, 0, 0, 0, 0, 0, 0, 0, 0, 0, 0, 0, 0, 0, 0, 0, 0, 0, 0, 0, 0, 0, 0, 0, 0, 0, 0, 0, 0, 0, 0, 0, 0, 0, 0, 0, 0, 0, 0, 0, 0, 0, 0, 0, 0, 0, 0, 0, 0, 0, 0, 0, 0, 0, 0, 0, 0, 0, 0, 0, 0, 0, 0, 0, 0, 0, 0, 0, 0, 0, 0, 0, 0, 0, 0, 0, 0, 0, 0, 0, 0, 0, 0, 0, 0, 0, 0, 0, 0, 0, 0, 0, 0, 0, 0, 0, 0, 0, 0, 0, 0, 0, 0, 0, 0, 0, 0, 0, 0, 0, 0, 0, 0, 0, 0}, {0, 0, 0, 0, 0, 0, 0, 0, 0, 0, 0, 0, 0, 0, 0, 0, 0, 0, 0, 0, 0, 0, 0, 0, 0, 0, 0, 0, 0, 0, 0, 0, 0, 0, 0, 0, 0, 0, 0, 0, 0, 0, 0, 0, 0, 0, 0, 0, 0, 0, 0, 0, 0, 0, 0, 0, 0, 0, 0, 0, 0, 0, 0, 0, 0, 0, 0, 0, 0, 0, 0, 0, 0, 0, 0, 0, 0, 0, 0, 0, 0, 0, 0, 0, 0, 0, 0, 0, 0, 0, 0, 0, 0, 0, 0, 0, 0, 0, 0, 0, 0, 0, 0, 0, 0, 0, 0, 0, 0, 0, 0, 0, 0, 0, 0, 0, 0, 0, 0, 0, 0, 0, 0, 0, 0, 0, 0, 0, 0, 0, 0, 0, 0, 0, 0, 0, 0, 0, 0, 0, 0, 0, 0, 0, 0, 0, 0, 0, 0, 0, 0, 0, 0, 0, 0, 0, 0, 0, 0, 0, 0, 0, 0, 0, 0, 0, 0, 0, 0, 0, 0, 0, 0, 0, 0, 0, 0, 0, 0, 0, 0, 0, 0, 0, 0, 0, 0, 0, 0, 0, 0, 0, 0, 0, 0, 0, 0, 0, 0, 0, 0, 0, 0, 0, 0, 0, 0, 0, 0, 0, 0, 0, 0, 0, 0, 0, 0, 0, 0, 0, 0, 0, 0, 0, 0, 0, 0, 0, 0, 0, 0, 0, 0, 0, 0, 0, 0, 0, 0, 0, 0, 0, 0, 0, 0, 0, 0, 0, 0, 0, 0, 0, 0, 0, 0, 0}, {0, 0, 0, 0, 0, 0, 0, 0, 0, 0, 0, 0, 0, 0, 0, 0, 0, 0, 0, 0, 0, 0, 0, 0, 0, 0, 0, 0, 0, 0, 0, 0, 0, 0, 0, 0, 0, 0, 0, 0, 0, 0, 0, 0, 0, 0, 0, 0, 0, 0, 0, 0, 0, 0, 0, 0, 0, 0, 0, 0, 0, 0, 0, 0, 0, 0, 0, 0, 0, 0, 0, 0, 0, 0, 0, 0, 0, 0, 0, 0, 0, 0, 0, 0, 0, 0, 0, 0, 0, 0, 0, 0, 0, 0, 0, 0, 0, 0, 0, 0, 0, 0, 0, 0, 0, 0, 0, 0, 0, 0, 0, 0, 0, 0, 0, 0, 0, 0, 0, 0, 0, 0, 0, 0, 0, 0, 0, 0, 0, 0, 0, 0, 0, 0, 0, 0, 0, 0, 0, 0, 0, 0, 0, 0, 0, 0, 0, 0, 0, 0, 0, 0, 0, 0, 0, 0, 0, 0, 0, 0, 0, 0, 0, 0, 0, 0, 0, 0, 0, 0, 0, 0, 0, 0, 0, 0, 0, 0, 0, 0, 0, 0, 0, 0, 0, 0, 0, 0, 0, 0, 0, 0, 0, 0, 0, 0, 0, 0, 0, 0, 0, 0, 0, 0, 0, 0, 0, 0, 0, 0, 0, 0, 0, 0, 0, 0, 0, 0, 0, 0, 0, 0, 0, 0, 0, 0, 0, 0, 0, 0, 0, 0, 0, 0, 0, 0, 0, 0, 0, 0, 0, 0, 0, 0, 0, 0, 0, 0, 0, 0, 0, 0, 0, 0, 0, 0}, {0, 0, 0, 0, 0, 0, 0, 0, 0, 0, 0, 0, 0, 0, 0, 0, 0, 0, 0, 0, 0, 0, 0, 0, 0, 0, 0, 0, 0, 0, 0, 0, 0, 0, 0, 0, 0, 0, 0, 0, 0, 0, 0, 0, 0, 0, 0, 0, 0, 0, 0, 0, 0, 0, 0, 0, 0, 0, 0, 0, 0, 0, 0, 0, 0, 0, 0, 0, 0, 0, 0, 0, 0, 0, 0, 0, 0, 0, 0, 0, 0, 0, 0, 0, 0, 0, 0, 0, 0, 0, 0, 0, 0, 0, 0, 0, 0, 0, 0, 0, 0, 0, 0, 0, 0, 0, 0, 0, 0, 0, 0, 0, 0, 0, 0, 0, 0, 0, 0, 0, 0, 0, 0, 0, 0, 0, 0, 0, 0, 0, 0, 0, 0, 0, 0, 0, 0, 0, 0, 0, 0, 0, 0, 0, 0, 0, 0, 0, 0, 0, 0, 0, 0, 0, 0, 0, 0, 0, 0, 0, 0, 0, 0, 0, 0, 0, 0, 0, 0, 0, 0, 0, 0, 0, 0, 0, 0, 0, 0, 0, 0, 0, 0, 0, 0, 0, 0, 0, 0, 0, 0, 0, 0, 0, 0, 0, 0, 0, 0, 0, 0, 0, 0, 0, 0, 0, 0, 0, 0, 0, 0, 0, 0, 0, 0, 0, 0, 0, 0, 0, 0, 0, 0, 0, 0, 0, 0, 0, 0, 0, 0, 0, 0, 0, 0, 0, 0, 0, 0, 0, 0, 0, 0, 0, 0, 0, 0, 0, 0, 0, 0, 0, 0, 0, 0, 0}, {0, 0, 0, 0, 0, 0, 0, 0, 0, 0, 0, 0, 0, 0, 0, 0, 0, 0, 0, 0, 0, 0, 0, 0, 0, 0, 0, 0, 0, 0, 0, 0, 0, 0, 0, 0, 0, 0, 0, 0, 0, 0, 0, 0, 0, 0, 0, 0, 0, 0, 0, 0, 0, 0, 0, 0, 0, 0, 0, 0, 0, 0, 0, 0, 0, 0, 0, 0, 0, 0, 0, 0, 0, 0, 0, 0, 0, 0, 0, 0, 0, 0, 0, 0, 0, 0, 0, 0, 0, 0, 0, 0, 0, 0, 0, 0, 0, 0, 0, 0, 0, 0, 0, 0, 0, 0, 0, 0, 0, 0, 0, 0, 0, 0, 0, 0, 0, 0, 0, 0, 0, 0, 0, 0, 0, 0, 0, 0, 0, 0, 0, 0, 0, 0, 0, 0, 0, 0, 0, 0, 0, 0, 0, 0, 0, 0, 0, 0, 0, 0, 0, 0, 0, 0, 0, 0, 0, 0, 0, 0, 0, 0, 0, 0, 0, 0, 0, 0, 0, 0, 0, 0, 0, 0, 0, 0, 0, 0, 0, 0, 0, 0, 0, 0, 0, 0, 0, 0, 0, 0, 0, 0, 0, 0, 0, 0, 0, 0, 0, 0, 0, 0, 0, 0, 0, 0, 0, 0, 0, 0, 0, 0, 0, 0, 0, 0, 0, 0, 0, 0, 0, 0, 0, 0, 0, 0, 0, 0, 0, 0, 0, 0, 0, 0, 0, 0, 0, 0, 0, 0, 0, 0, 0, 0, 0, 0, 0, 0, 0, 0, 0, 0, 0, 0, 0, 0}, {0, 0, 0, 0, 0, 0, 0, 0, 0, 0, 0, 0, 0, 0, 0, 0, 0, 0, 0, 0, 0, 0, 0, 0, 0, 0, 0, 0, 0, 0, 0, 0, 0, 0, 0, 0, 0, 0, 0, 0, 0, 0, 0, 0, 0, 0, 0, 0, 0, 0, 0, 0, 0, 0, 0, 0, 0, 0, 0, 0, 0, 0, 0, 0, 0, 0, 0, 0, 0, 0, 0, 0, 0, 0, 0, 0, 0, 0, 0, 0, 0, 0, 0, 0, 0, 0, 0, 0, 0, 0, 0, 0, 0, 0, 0, 0, 0, 0, 0, 0, 0, 0, 0, 0, 0, 0, 0, 0, 0, 0, 0, 0, 0, 0, 0, 0, 0, 0, 0, 0, 0, 0, 0, 0, 0, 0, 0, 0, 0, 0, 0, 0, 0, 0, 0, 0, 0, 0, 0, 0, 0, 0, 0, 0, 0, 0, 0, 0, 0, 0, 0, 0, 0, 0, 0, 0, 0, 0, 0, 0, 0, 0, 0, 0, 0, 0, 0, 0, 0, 0, 0, 0, 0, 0, 0, 0, 0, 0, 0, 0, 0, 0, 0, 0, 0, 0, 0, 0, 0, 0, 0, 0, 0, 0, 0, 0, 0, 0, 0, 0, 0, 0, 0, 0, 0, 0, 0, 0, 0, 0, 0, 0, 0, 0, 0, 0, 0, 0, 0, 0, 0, 0, 0, 0, 0, 0, 0, 0, 0, 0, 0, 0, 0, 0, 0, 0, 0, 0, 0, 0, 0, 0, 0, 0, 0, 0, 0, 0, 0, 0, 0, 0, 0, 0, 0, 0}, {0, 0, 0, 0, 0, 0, 0, 0, 0, 0, 0, 0, 0, 0, 0, 0, 0, 0, 0, 0, 0, 0, 0, 0, 0, 0, 0, 0, 0, 0, 0, 0, 0, 0, 0, 0, 0, 0, 0, 0, 0, 0, 0, 0, 0, 0, 0, 0, 0, 0, 0, 0, 0, 0, 0, 0, 0, 0, 0, 0, 0, 0, 0, 0, 0, 0, 0, 0, 0, 0, 0, 0, 0, 0, 0, 0, 0, 0, 0, 0, 0, 0, 0, 0, 0, 0, 0, 0, 0, 0, 0, 0, 0, 0, 0, 0, 0, 0, 0, 0, 0, 0, 0, 0, 0, 0, 0, 0, 0, 0, 0, 0, 0, 0, 0, 0, 0, 0, 0, 0, 0, 0, 0, 0, 0, 0, 0, 0, 0, 0, 0, 0, 0, 0, 0, 0, 0, 0, 0, 0, 0, 0, 0, 0, 0, 0, 0, 0, 0, 0, 0, 0, 0, 0, 0, 0, 0, 0, 0, 0, 0, 0, 0, 0, 0, 0, 0, 0, 0, 0, 0, 0, 0, 0, 0, 0, 0, 0, 0, 0, 0, 0, 0, 0, 0, 0, 0, 0, 0, 0, 0, 0, 0, 0, 0, 0, 0, 0, 0, 0, 0, 0, 0, 0, 0, 0, 0, 0, 0, 0, 0, 0, 0, 0, 0, 0, 0, 0, 0, 0, 0, 0, 0, 0, 0, 0, 0, 0, 0, 0, 0, 0, 0, 0, 0, 0, 0, 0, 0, 0, 0, 0, 0, 0, 0, 0, 0, 0, 0, 0, 0, 0, 0, 0, 0, 0}, {0, 0, 0, 0, 0, 0, 0, 0, 0, 0, 0, 0, 0, 0, 0, 0, 0, 0, 0, 0, 0, 0, 0, 0, 0, 0, 0, 0, 0, 0, 0, 0, 0, 0, 0, 0, 0, 0, 0, 0, 0, 0, 0, 0, 0, 0, 0, 0, 0, 0, 0, 0, 0, 0, 0, 0, 0, 0, 0, 0, 0, 0, 0, 0, 0, 0, 0, 0, 0, 0, 0, 0, 0, 0, 0, 0, 0, 0, 0, 0, 0, 0, 0, 0, 0, 0, 0, 0, 0, 0, 0, 0, 0, 0, 0, 0, 0, 0, 0, 0, 0, 0, 0, 0, 0, 0, 0, 0, 0, 0, 0, 0, 0, 0, 0, 0, 0, 0, 0, 0, 0, 0, 0, 0, 0, 0, 0, 0, 0, 0, 0, 0, 0, 0, 0, 0, 0, 0, 0, 0, 0, 0, 0, 0, 0, 0, 0, 0, 0, 0, 0, 0, 0, 0, 0, 0, 0, 0, 0, 0, 0, 0, 0, 0, 0, 0, 0, 0, 0, 0, 0, 0, 0, 0, 0, 0, 0, 0, 0, 0, 0, 0, 0, 0, 0, 0, 0, 0, 0, 0, 0, 0, 0, 0, 0, 0, 0, 0, 0, 0, 0, 0, 0, 0, 0, 0, 0, 0, 0, 0, 0, 0, 0, 0, 0, 0, 0, 0, 0, 0, 0, 0, 0, 0, 0, 0, 0, 0, 0, 0, 0, 0, 0, 0, 0, 0, 0, 0, 0, 0, 0, 0, 0, 0, 0, 0, 0, 0, 0, 0, 0, 0, 0, 0, 0, 0}, {0, 0, 0, 0, 0, 0, 0, 0, 0, 0, 0, 0, 0, 0, 0, 0, 0, 0, 0, 0, 0, 0, 0, 0, 0, 0, 0, 0, 0, 0, 0, 0, 0, 0, 0, 0, 0, 0, 0, 0, 0, 0, 0, 0, 0, 0, 0, 0, 0, 0, 0, 0, 0, 0, 0, 0, 0, 0, 0, 0, 0, 0, 0, 0, 0, 0, 0, 0, 0, 0, 0, 0, 0, 0, 0, 0, 0, 0, 0, 0, 0, 0, 0, 0, 0, 0, 0, 0, 0, 0, 0, 0, 0, 0, 0, 0, 0, 0, 0, 0, 0, 0, 0, 0, 0, 0, 0, 0, 0, 0, 0, 0, 0, 0, 0, 0, 0, 0, 0, 0, 0, 0, 0, 0, 0, 0, 0, 0, 0, 0, 0, 0, 0, 0, 0, 0, 0, 0, 0, 0, 0, 0, 0, 0, 0, 0, 0, 0, 0, 0, 0, 0, 0, 0, 0, 0, 0, 0, 0, 0, 0, 0, 0, 0, 0, 0, 0, 0, 0, 0, 0, 0, 0, 0, 0, 0, 0, 0, 0, 0, 0, 0, 0, 0, 0, 0, 0, 0, 0, 0, 0, 0, 0, 0, 0, 0, 0, 0, 0, 0, 0, 0, 0, 0, 0, 0, 0, 0, 0, 0, 0, 0, 0, 0, 0, 0, 0, 0, 0, 0, 0, 0, 0, 0, 0, 0, 0, 0, 0, 0, 0, 0, 0, 0, 0, 0, 0, 0, 0, 0, 0, 0, 0, 0, 0, 0, 0, 0, 0, 0, 0, 0, 0, 0, 0, 0}, {0, 0, 0, 0, 0, 0, 0, 0, 0, 0, 0, 0, 0, 0, 0, 0, 0, 0, 0, 0, 0, 0, 0, 0, 0, 0, 0, 0, 0, 0, 0, 0, 0, 0, 0, 0, 0, 0, 0, 0, 0, 0, 0, 0, 0, 0, 0, 0, 0, 0, 0, 0, 0, 0, 0, 0, 0, 0, 0, 0, 0, 0, 0, 0, 0, 0, 0, 0, 0, 0, 0, 0, 0, 0, 0, 0, 0, 0, 0, 0, 0, 0, 0, 0, 0, 0, 0, 0, 0, 0, 0, 0, 0, 0, 0, 0, 0, 0, 0, 0, 0, 0, 0, 0, 0, 0, 0, 0, 0, 0, 0, 0, 0, 0, 0, 0, 0, 0, 0, 0, 0, 0, 0, 0, 0, 0, 0, 0, 0, 0, 0, 0, 0, 0, 0, 0, 0, 0, 0, 0, 0, 0, 0, 0, 0, 0, 0, 0, 0, 0, 0, 0, 0, 0, 0, 0, 0, 0, 0, 0, 0, 0, 0, 0, 0, 0, 0, 0, 0, 0, 0, 0, 0, 0, 0, 0, 0, 0, 0, 0, 0, 0, 0, 0, 0, 0, 0, 0, 0, 0, 0, 0, 0, 0, 0, 0, 0, 0, 0, 0, 0, 0, 0, 0, 0, 0, 0, 0, 0, 0, 0, 0, 0, 0, 0, 0, 0, 0, 0, 0, 0, 0, 0, 0, 0, 0, 0, 0, 0, 0, 0, 0, 0, 0, 0, 0, 0, 0, 0, 0, 0, 0, 0, 0, 0, 0, 0, 0, 0, 0, 0, 0, 0, 0, 0, 0}, {0, 0, 0, 0, 0, 0, 0, 0, 0, 0, 0, 0, 0, 0, 0, 0, 0, 0, 0, 0, 0, 0, 0, 0, 0, 0, 0, 0, 0, 0, 0, 0, 0, 0, 0, 0, 0, 0, 0, 0, 0, 0, 0, 0, 0, 0, 0, 0, 0, 0, 0, 0, 0, 0, 0, 0, 0, 0, 0, 0, 0, 0, 0, 0, 0, 0, 0, 0, 0, 0, 0, 0, 0, 0, 0, 0, 0, 0, 0, 0, 0, 0, 0, 0, 0, 0, 0, 0, 0, 0, 0, 0, 0, 0, 0, 0, 0, 0, 0, 0, 0, 0, 0, 0, 0, 0, 0, 0, 0, 0, 0, 0, 0, 0, 0, 0, 0, 0, 0, 0, 0, 0, 0, 0, 0, 0, 0, 0, 0, 0, 0, 0, 0, 0, 0, 0, 0, 0, 0, 0, 0, 0, 0, 0, 0, 0, 0, 0, 0, 0, 0, 0, 0, 0, 0, 0, 0, 0, 0, 0, 0, 0, 0, 0, 0, 0, 0, 0, 0, 0, 0, 0, 0, 0, 0, 0, 0, 0, 0, 0, 0, 0, 0, 0, 0, 0, 0, 0, 0, 0, 0, 0, 0, 0, 0, 0, 0, 0, 0, 0, 0, 0, 0, 0, 0, 0, 0, 0, 0, 0, 0, 0, 0, 0, 0, 0, 0, 0, 0, 0, 0, 0, 0, 0, 0, 0, 0, 0, 0, 0, 0, 0, 0, 0, 0, 0, 0, 0, 0, 0, 0, 0, 0, 0, 0, 0, 0, 0, 0, 0, 0, 0, 0, 0, 0, 0}, {0, 0, 0, 0, 0, 0, 0, 0, 0, 0, 0, 0, 0, 0, 0, 0, 0, 0, 0, 0, 0, 0, 0, 0, 0, 0, 0, 0, 0, 0, 0, 0, 0, 0, 0, 0, 0, 0, 0, 0, 0, 0, 0, 0, 0, 0, 0, 0, 0, 0, 0, 0, 0, 0, 0, 0, 0, 0, 0, 0, 0, 0, 0, 0, 0, 0, 0, 0, 0, 0, 0, 0, 0, 0, 0, 0, 0, 0, 0, 0, 0, 0, 0, 0, 0, 0, 0, 0, 0, 0, 0, 0, 0, 0, 0, 0, 0, 0, 0, 0, 0, 0, 0, 0, 0, 0, 0, 0, 0, 0, 0, 0, 0, 0, 0, 0, 0, 0, 0, 0, 0, 0, 0, 0, 0, 0, 0, 0, 0, 0, 0, 0, 0, 0, 0, 0, 0, 0, 0, 0, 0, 0, 0, 0, 0, 0, 0, 0, 0, 0, 0, 0, 0, 0, 0, 0, 0, 0, 0, 0, 0, 0, 0, 0, 0, 0, 0, 0, 0, 0, 0, 0, 0, 0, 0, 0, 0, 0, 0, 0, 0, 0, 0, 0, 0, 0, 0, 0, 0, 0, 0, 0, 0, 0, 0, 0, 0, 0, 0, 0, 0, 0, 0, 0, 0, 0, 0, 0, 0, 0, 0, 0, 0, 0, 0, 0, 0, 0, 0, 0, 0, 0, 0, 0, 0, 0, 0, 0, 0, 0, 0, 0, 0, 0, 0, 0, 0, 0, 0, 0, 0, 0, 0, 0, 0, 0, 0, 0, 0, 0, 0, 0, 0, 0, 0, 0}, {0, 0, 0, 0, 0, 0, 0, 0, 0, 0, 0, 0, 0, 0, 0, 0, 0, 0, 0, 0, 0, 0, 0, 0, 0, 0, 0, 0, 0, 0, 0, 0, 0, 0, 0, 0, 0, 0, 0, 0, 0, 0, 0, 0, 0, 0, 0, 0, 0, 0, 0, 0, 0, 0, 0, 0, 0, 0, 0, 0, 0, 0, 0, 0, 0, 0, 0, 0, 0, 0, 0, 0, 0, 0, 0, 0, 0, 0, 0, 0, 0, 0, 0, 0, 0, 0, 0, 0, 0, 0, 0, 0, 0, 0, 0, 0, 0, 0, 0, 0, 0, 0, 0, 0, 0, 0, 0, 0, 0, 0, 0, 0, 0, 0, 0, 0, 0, 0, 0, 0, 0, 0, 0, 0, 0, 0, 0, 0, 0, 0, 0, 0, 0, 0, 0, 0, 0, 0, 0, 0, 0, 0, 0, 0, 0, 0, 0, 0, 0, 0, 0, 0, 0, 0, 0, 0, 0, 0, 0, 0, 0, 0, 0, 0, 0, 0, 0, 0, 0, 0, 0, 0, 0, 0, 0, 0, 0, 0, 0, 0, 0, 0, 0, 0, 0, 0, 0, 0, 0, 0, 0, 0, 0, 0, 0, 0, 0, 0, 0, 0, 0, 0, 0, 0, 0, 0, 0, 0, 0, 0, 0, 0, 0, 0, 0, 0, 0, 0, 0, 0, 0, 0, 0, 0, 0, 0, 0, 0, 0, 0, 0, 0, 0, 0, 0, 0, 0, 0, 0, 0, 0, 0, 0, 0, 0, 0, 0, 0, 0, 0, 0, 0, 0, 0, 0, 0}, {-209, 28, -12, 29, -2, -59, 111, -316, 7, 57, 38, 24, -764, 55, 37, -365, 41, 3, -13, 9, -13, 178, 26, 43, -107, -100, 41, 55, 48, -25, 2, -20, 77, -150, -29, 0, 4, 44, 1, 45, -71, -17, -51, -75, -66, 27, -47, -93, 15, -51, 7, 12, -491, 174, 11, 18, 18, -1117, 41, 15, 12, 64, -3, 111, 214, -41, -3, 141, 108, 185, 77, 0, 11, -48, 101, 4, 563, 98, 21, -2, 1, -7, -25, -59, -53, 34, -63, -21, 77, -409, -2, -219, -8, -51, 94, -101, 9, 98, 104, -10, 51, 3, 95, 30, 10, 56, 37, -31, -45, 22, -15, 55, 106, 75, 32, 98, 40, -56, 38, 247, -304, -99, -50, 24, 1, 184, 107, -81, 349, 10, -4, 5, 14, -11, -35, -59, 50, 25, 2, 63, 25, -35, -80, 9, 28, -48, -76, -9, -24, -16, -111, -268, 32, 150, 41, -6, 30, 43, -46, -36, -87, -15, 10, -54, 46, 18, -208, 74, 59, -5, -55, -250, 197, -33, -75, 57, 4, -13, -27, 39, 42, 32, -3, 50, 15, 94, -20, -32, 88, 161, -61, -47, 1, 41, -93, -152, 21, -56, 25, 9, 69, -22, -15, -64, 31, 12, 889, -346, 13, -35, 46, -88, 157, 39, 46, 9, 11, 117, 35, 16, -24, 24, 24, 19, -34, -44, -32, 35, -34, -22, 57, -43, -49, 180, 106, -35, 158, 28, -17, 46, -577, 2, -1, 30, 51, -216, 20, -24, -46, 60, 9, 27, 19, -94, -35, -35}, {-99, 17, -47, 17, 3, -260, 1, -441, 20, 55, 59, 26, 76, 94, 36, -452, 35, -52, -27, 118, -5, 37, -93, 67, -99, -47, 74, 20, -26, -35, -143, -149, 62, -172, -50, 69, 29, 15, 17, -47, -31, -30, 27, 23, -37, -7, 69, -107, 2, -65, 3, 68, -592, 203, -2, 58, 7, -885, -66, -5, 14, 89, -38, 86, 419, -54, -14, 103, 50, 138, 65, 12, 46, -110, 62, -8, 622, 44, 63, -127, -6, -68, 200, -12, -67, 31, 20, 35, 54, -502, 141, -292, -9, -21, 33, -133, 10, -85, 99, 299, 35, -38, 56, 1, 13, 36, -33, -21, -82, -9, -10, 22, 50, 70, -78, 37, 29, 52, 18, 228, -417, -87, -106, 12, 82, 381, 114, 6, -145, 33, -106, 11, -33, 3, -71, -40, 32, 7, -19, -9, 57, -33, -126, 12, -4, 36, 111, -190, 66, -65, -133, -98, -5, 3, 8, 34, -25, 41, 8, -51, -70, -28, -16, -70, 49, 0, -213, 37, 4, -16, -52, -584, -40, -10, -52, 77, 6, -4, 25, 11, -362, -37, 37, 33, -24, 41, -35, -94, 17, 125, -77, -26, -12, -134, -84, -102, 35, -64, 43, -17, 69, -272, -4, 14, -7, 21, -832, -280, -65, 7, 70, -192, -190, 2, 80, -2, -321, 96, 31, 21, -73, -1, -47, -18, 24, -203, -56, 27, -36, -38, 6, -906, -62, 165, 16, 23, 369, 8, 38, -13, -671, 58, 146, -24, 69, 678, 70, 68, -33, 74, 47, 53, 5, -105, -132, -14}, {-130, 3, -32, -2, 9, -205, -39, -343, 26, 49, 75, -10, 95, 43, 39, -308, 40, -177, 58, 133, 34, 13, -156, 0, -53, -77, 21, 8, 40, 155, -126, -190, 42, -224, -14, 17, 10, 18, 17, 51, -67, -54, -109, 1, -2, 13, -67, 50, 131, -45, 4, 13, -474, 99, -4, 59, 48, 132, 81, -3, 26, -4, 17, 84, 114, -45, -1, 202, 104, -70, 103, -3, -1, -57, 63, -26, 569, 30, -14, -167, 58, -6, 29, 48, -7, 52, -32, -21, 58, -325, -89, -265, -74, 13, -821, 91, 32, -567, 52, -87, 47, -22, 100, 37, 32, 54, -6, -57, -43, 19, -16, -7, 86, 12, -36, -9, 3, -27, -50, 240, -303, -69, 122, -16, -540, -34, 77, -137, -2, 23, -86, 27, 72, 25, -24, -29, 5, 5, 4, 4, 100, -59, -744, 2, -17, 646, -143, -6, 29, -43, -90, -68, 18, -457, -4, 31, -36, 44, 20, -93, -129, 4, 12, -40, 7, -56, -152, 57, 27, -67, -42, -621, 10, -52, -58, 39, -9, -21, 79, 29, 244, -16, -16, 35, -27, -17, -23, -53, 38, 96, -42, -41, -26, -11, -19, 129, -89, -30, 47, 5, -9, 12, 8, -37, 14, 17, 165, -391, 84, 23, 35, -107, 110, -16, 53, -15, 84, 85, -51, 1, -112, -27, 48, 22, -56, 54, -67, 73, 19, -24, -99, -69, -46, 148, -15, 172, 15, 112, 13, 25, -190, -16, -30, 65, -44, -611, 108, -27, -27, 39, 116, 85, 2, -33, -47, 5}, {-300, -32, -148, 15, 9, -260, 31, -350, 35, 60, 122, -87, 109, 232, 51, -38, 44, 400, 27, -102, 4, 277, 132, -32, -183, -68, -178, -10, 3, -251, -613, 10, 37, 129, -133, 22, -3, 49, -108, -42, -133, -14, -20, -81, -108, -397, -86, 581, 26, -49, 20, 41, -180, -274, -99, 16, 28, 55, 136, -64, -28, -158, -90, 90, -49, -49, -32, 59, -60, -55, 80, -68, -571, 124, 64, -48, 573, -3, -285, -130, 32, -63, 103, -154, -370, 57, -62, -32, 98, -8, 228, -264, -51, 26, 66, -401, -683, -3, 71, 96, 136, -16, 135, -26, 32, -38, -54, -47, -39, -70, -74, -41, -2, -35, -87, -182, 66, -29, -277, 188, 25, -113, -241, 72, 246, 339, 110, 63, -56, 159, 6, -62, -162, 18, -26, 3, -60, -72, -82, 348, 43, 56, -55, 27, -37, -50, -54, -147, 106, -55, -67, 77, -116, -465, -158, -240, -34, 58, 120, -186, -152, -28, 0, -50, 429, 45, -238, -60, 54, -54, -68, -192, 0, -72, -253, -84, 1, 1, 101, 97, -277, 28, -98, 85, -23, -42, -107, 235, -46, 6, 94, -142, 25, 9, 103, 64, -17, -24, -160, -63, -360, 11, -123, -130, -56, -84, -157, -75, -91, 56, 120, -131, 159, 136, 80, -80, -490, 77, -34, -4, -18, -72, -225, 26, 9, 41, -55, 55, 18, -38, 74, 219, -59, 30, -91, -276, 76, -8, 103, 15, 144, -22, -23, -157, 138, 229, -65, 78, -21, 58, 54, 56, -151, -123, -72, -133}, {-82, -144, 12, -230, -109, -296, -19, -416, 35, 62, 92, -170, 90, -27, 40, -148, 23, -417, 87, -142, 86, 43, -182, -582, -301, -62, 80, -75, 69, -40, -62, 177, 49, -25, 26, -131, 59, -60, 8, -14, 36, -23, 57, -67, 22, -76, -31, 35, 3, -60, -102, 156, -280, 96, -29, 7, -54, 44, -113, -50, -47, 49, -438, 91, -65, -69, -86, 156, -84, -15, 48, -21, -40, -159, 27, -70, 560, -19, 6, 11, -158, 16, 248, -153, -195, 5, -6, -24, 67, -156, -149, -310, 15, -66, 115, 129, -2, 76, 61, 120, 257, -49, -10, 139, -19, 65, 14, 12, -29, -67, -34, -15, 78, 98, -114, -52, -107, -30, -147, 203, -118, -82, -119, 30, -500, -122, 88, -153, -47, -224, -132, -140, 69, 70, -92, -66, -41, 1, 85, 187, 80, -114, -134, -108, -43, -102, -1, -83, 95, -81, -105, 98, -18, -197, -26, 393, -139, 36, 113, -136, 168, -46, -35, -98, -198, 2, -116, 69, -4, -5, -85, 35, -19, -198, -100, 46, 18, -14, -283, 90, 17, -766, -15, 41, 19, 173, -11, 73, -370, 17, -124, -137, -125, -45, 66, 31, 39, -24, 225, -268, 6, -13, -207, -454, -539, -122, -2, -203, -72, 26, -126, -12, 49, 61, 107, -22, 205, 94, -95, -80, 32, -95, 321, -48, -95, 27, -67, 15, 112, -92, 49, 73, -36, 103, -85, 186, 284, 141, 43, 10, 43, -34, 3, 221, -201, -111, -96, -85, -53, 39, 121, -229, 40, -63, -2, -104}, {-70, -43, -20, -2, -1749, -492, -61, -424, 21, 49, -121, 134, 81, 28, 45, -652, 47, -42, 47, -147, 55, -63, 0, -49, -339, -15, -3, 25, 3, -64, 60, 174, 40, -410, -33, -32, 48, -11, 51, 83, -30, -9, 118, -23, -56, -43, 47, -108, 28, -63, 26, -168, -295, 195, -61, 63, -1283, 36, 0, -27, 53, 71, -17, 54, -90, -49, -83, 55, 151, 14, 96, -36, 22, -61, 31, -32, 587, -59, 87, 120, -1029, -12, 131, -150, -74, 41, 10, -12, 96, -320, 149, -312, -5, 29, 77, -33, 36, 63, 96, 84, 139, 26, -97, 89, -77, 21, 25, -43, -35, -68, -66, -31, -44, -9, -24, -824, -88, -61, -137, 275, -269, 36, -18, 108, 58, -136, 68, 70, -96, -136, -31, 29, 24, -63, -112, -34, -5, -39, 124, -5, 127, -78, -111, 26, -89, 64, 48, -95, 38, -27, -128, 63, -1, 55, -62, -921, 1015, 52, -10, -64, -30, -48, -6, -55, 166, -193, -105, -16, 36, -19, -39, 94, 29, -88, -54, 93, 60, 26, 421, 131, 37, -20, 12, 44, -93, -418, -27, -98, -142, -24, 78, -103, -13, 12, 42, 97, 25, -62, -67, -245, 74, 7, -138, -29, 67, -30, 37, 26, -55, 18, -256, -3, 32, 6, 47, -23, -33, 103, 115, 12, -7, -142, -125, -33, 45, 77, -27, 219, -16, -16, -5, 77, -49, 160, 37, 42, 344, 58, -80, -18, 62, 13, 68, -196, 23, -7, -32, -73, -118, 5, 88, -186, 15, -96, -53, -39}, {-99, -7, -21, -402, 13, -605, -36, -476, 29, 55, -1039, -161, 80, -412, 48, -373, 57, -25, -3, -52, 37, 85, 3, 67, -267, 3, -26, 113, 6, 8, 22, 155, 77, -181, -19, 52, 3, -24, 48, 3, -38, 31, 163, -8, -35, -13, 50, -118, 28, -67, 45, 56, -372, 212, -82, 52, 16, 51, -53, 30, 23, 40, -4, 72, -129, -60, -37, 183, -772, 42, 82, 36, -4, -65, 47, -39, 606, -16, 71, 161, -138, 0, 323, -36, -69, 21, 33, -22, 128, -536, -62, -306, -2, -6, 30, 31, -7, 57, 57, 94, -107, 9, -176, -10, 11, 66, 33, -64, -46, -206, 6, -54, -7, -71, 22, -121, -121, -20, -40, 276, -587, -20, 31, 331, 2, -97, 37, 113, -54, -251, -249, 41, -6, -138, -114, -48, 18, -169, 304, 26, -39, -49, -70, 56, -9, 103, 19, -66, 18, -18, -157, -13, 7, 58, 43, 112, -119, 42, 46, -16, -89, 53, 33, -45, -15, 929, -106, 57, 17, -13, -45, 55, 50, 263, -38, -109, 40, -15, -627, -273, -7, -41, 8, 41, -24, 56, 8, -51, -1054, 155, -66, -98, -111, 7, 13, 65, 12, -61, 41, 12, 111, 22, -149, -55, 43, 35, 42, -20, -28, 4, -162, 62, 49, 25, 78, -1, 29, 138, -10, 21, 0, -38, 37, -73, -42, 67, -32, -745, -53, -230, 9, 48, -44, 187, 98, 48, 417, 24, -239, -81, 52, 23, 51, 85, 37, 53, -15, -45, -59, 37, 87, 31, -6, -31, 56, -19}, {-127, -22, 7, -14, -25, -564, -10, -367, 32, 40, -146, -5, 37, -69, 35, -520, 48, 12, 34, 63, 0, 62, 8, 23, -224, -70, -25, -284, 13, 75, 12, 134, 84, -139, -1, 21, 5, -17, 2, -1286, -33, -43, 169, -9, -59, -16, 45, 6, 40, -33, -16, -58, -55, 217, -53, 9, 23, 45, -4, -31, 14, 58, -32, 97, -239, -39, 91, 27, -985, 179, 65, -102, -1, -39, 68, -8, 506, 12, 34, 103, 292, -64, 125, -49, -60, 33, 32, -19, -14, -337, 83, -250, -9, -63, -13, -30, -42, 30, 102, 32, -789, -22, -398, 48, -2, 35, 60, -71, -25, -145, -19, -24, -60, 953, -34, 27, -179, -12, 1, 248, -213, 25, 43, 283, 72, -159, 32, 44, -18, -11, 69, 16, -14, -129, -33, -35, 72, 61, 340, 66, -46, -66, -48, 9, 14, 43, 27, -27, 10, -44, -148, -139, 11, 15, 89, -208, -100, 30, -42, -13, -35, -8, 62, -27, -2, -23, -126, 42, 30, 14, -46, 19, 18, 66, -51, -693, 27, -26, 231, 79, 11, 42, 41, 40, 16, 14, 2, -72, -119, 148, -29, -143, -25, 58, 10, 17, 50, -197, 54, -19, 68, -7, -370, -10, -58, 15, 8, 72, -108, -36, -85, 43, 54, 27, 64, -7, 102, 134, 12, -8, 3, 16, -83, -73, 21, 69, -16, -68, -219, 116, 4, 26, -30, 131, 120, 40, 264, 57, -177, -13, 2, -18, -8, -14, 32, 17, -118, 42, -65, -40, 67, -4, -38, -31, 47, -40}, {-152, 35, -63, 12, -3, -16, 59, -339, -5, 60, 29, 48, -831, 101, 37, -182, 48, 39, -21, 75, -23, 56, -36, 54, -92, -60, 28, 31, 21, -61, -177, -65, 71, -329, -32, -73, 20, -5, 39, 2, -64, 0, 29, -53, -58, -4, -53, -52, -11, -61, -10, 18, -364, 165, 17, 5, 35, -755, 5, 9, -37, 31, -33, 87, 324, -58, -10, 198, 36, 199, 80, 4, -3, -45, 70, -6, 540, 66, 42, -35, -1, -43, 40, 17, -79, 50, -9, 27, -10, -220, -14, -233, -41, -67, 65, -84, -8, 115, 128, 31, 78, 8, 118, 59, -19, 57, 28, -58, -72, 13, 21, 5, 123, 68, 12, 87, 45, 52, 65, 241, -186, -81, -10, 8, 74, 173, 118, -41, 285, 21, -29, 0, 4, -24, -45, -68, 65, -12, 38, 54, 72, -48, -38, 66, 43, 66, -927, -10, -26, -22, -110, -153, 58, 181, 8, 30, 22, 51, -36, -43, -70, -25, -24, -43, 60, -13, -210, 44, 73, -24, -58, -195, 209, -59, -77, 62, -4, 27, -30, 14, 32, -3, 17, 45, 2, 69, 4, -38, 70, 122, -17, -23, -17, -203, -118, -221, 44, -90, 18, 33, 61, 87, -9, -7, 19, -5, 1006, -429, -8, -28, 48, -48, -53, 22, 44, 22, -100, 93, 18, 18, -53, 28, 30, 27, -39, -7, -81, 50, -55, -39, 40, -113, -58, 137, 95, 16, 143, 102, 24, 69, -487, 28, 110, 45, 33, -242, 19, 27, -64, 82, 46, 46, -2, -115, 31, -72}, {-114, 36, -42, -12, -10, -174, -77, -399, 20, 68, 35, 75, -112, 91, 48, -491, 50, 4, -42, 42, -1, 9, -40, 51, -89, -39, -23, 33, 33, -14, -136, -84, 21, -67, -89, 51, 16, -33, 9, 4, -35, -35, -50, 9, -28, 25, 30, -16, 4, -63, -6, 54, -557, 159, -27, 1, 7, -297, -11, 0, 1, 44, -51, 103, 291, -68, -13, 222, 63, 49, 98, 15, -31, -64, 53, -11, 605, 95, 23, -35, 14, -29, 125, 80, -87, 34, -58, -4, 53, -539, 31, -286, -27, -15, -43, -212, 16, -41, 54, -64, 78, -41, 44, -6, -16, 48, -59, -26, -122, 13, 6, 32, 148, 73, -129, 23, 15, 93, 70, 267, -424, -49, -404, 38, 103, 219, 108, -14, 62, 65, -81, 12, 97, 27, -46, -28, -9, 5, -8, 43, 77, -55, -61, 113, -159, 89, 228, -44, 7, -47, -113, -28, -29, 53, 38, 41, -29, 46, 18, -108, -58, -31, -41, -50, 22, 41, -152, 58, 48, -39, -53, -630, -3, -45, -107, -17, 44, -9, 58, 30, -31, -3, 19, 33, -64, 33, -50, -64, 24, 5, -59, -7, 10, -14, 36, -61, 5, -32, 52, 32, 57, -208, -48, -19, -21, 5, -801, -382, -59, 31, 65, -244, 1042, -8, 38, 13, 59, 74, 55, 1, -166, -1, 55, -36, -26, -272, -81, 57, -25, -21, 65, -694, -59, 178, 53, 24, 320, 60, 15, 50, -519, 56, 40, 4, 45, 658, 66, -420, -63, 82, 90, 20, 6, -82, -34, -6}, {-88, -36, -100, 26, -68, -163, -43, -390, 41, 49, 44, 40, 116, 135, 33, -375, 41, -892, 157, 6, 16, 16, -183, 5, -101, -52, -30, 10, -2, -32, -511, -88, 28, -63, -91, 653, 42, -28, 1, 19, -32, 1, -9, -2, -3, -19, -38, -33, 21, -54, -39, 94, -590, 107, -28, 12, 44, 210, -18, -35, -33, -61, -31, 81, 67, -49, -22, 231, 91, 53, 79, -3, 49, -40, 38, -14, 540, 117, 129, -110, 5, -35, 126, 168, -47, 48, -69, -39, 54, -394, -145, -276, -37, -63, -767, 205, -12, -612, 80, 583, 71, -23, 83, 47, 13, 10, 30, -32, -65, -1, -33, -8, 94, -11, -59, -61, -12, 24, -189, 228, -310, -77, 165, 18, 134, -8, 108, -127, -108, 11, -81, 8, 79, 27, -48, -51, -7, -6, -19, 2, 130, -61, -64, 3, -28, -282, -784, -313, 50, -57, -114, -5, 22, -419, -6, 72, -2, 39, 10, -86, -99, -2, 1, -45, -4, -62, -163, 61, 33, -46, -52, -638, -56, -28, 25, 11, -2, -772, -15, 2, 447, -57, 20, 36, -47, -13, -32, -92, 0, 36, -22, -30, -46, -70, -57, 36, -120, 12, -23, 40, 1, 45, 24, -14, 31, 1, 245, -364, 27, 26, 61, -144, 19, -48, 58, -16, -220, 73, -10, -11, -96, -3, 12, 11, 6, -30, -76, 61, -37, -22, -56, -13, -49, 142, 63, -24, 196, -552, 7, -11, -151, 9, -28, 37, 54, -759, 65, 49, -62, 43, -8, 44, 32, -75, -367, 10}, {-230, -65, -93, -27, -48, -188, -8, -413, 30, 78, 92, 54, 153, 147, 61, -187, 39, 338, 136, -99, -7, -41, 106, -47, -77, -75, 352, 44, 42, -127, -86, -13, 33, -132, -82, 124, 21, -10, -92, 32, -115, -418, -59, -51, -88, -566, -75, 19, 92, -43, -27, -76, -408, 175, -25, 2, 30, 23, 52, -54, 6, -314, -128, 95, -74, -54, -18, 49, 35, -22, 106, 1, 5, 319, 26, -46, 543, -23, -162, -90, 121, -20, 22, 29, -72, 29, -72, -28, 88, -224, 93, -314, -38, 0, 122, -445, -849, -184, 24, -43, 85, -99, 45, 66, 15, 71, -39, 0, -76, 19, -22, -58, 94, -198, -57, 29, -36, -85, -401, 237, -197, -56, -715, 48, 184, -59, 99, -150, -98, 113, -9, 85, 107, 4, -61, -7, -44, 38, -61, -67, 36, -90, -50, -19, 76, -165, -94, 6, 78, -49, -92, 48, -171, -614, -67, -150, -79, 63, 163, -210, -22, 2, 4, -26, 87, 52, -140, 36, -125, -138, -48, 40, -82, -31, -76, -57, 32, -4, 63, 100, 27, -80, -115, 48, -18, -108, -73, -30, -84, -117, 13, -89, 28, 40, 94, 18, -70, -39, -69, 19, -583, 94, 30, -381, 4, -91, -143, -252, -103, -15, 52, -31, -24, -4, 61, -72, 62, 87, -18, -14, -41, -84, 166, -37, -5, -32, -84, 40, 47, -75, 71, 110, -45, 155, -11, 596, 27, 72, 30, -44, 162, -3, -61, -540, 53, 326, 39, -38, -69, 94, 226, -46, -158, -33, 3, -87}, {-74, -112, -68, 13, -1014, -389, -84, -417, -18, 47, 123, -758, 45, 116, 40, -186, 43, -788, 381, -249, 36, 33, -268, -725, -237, -29, 78, -25, 18, -42, -58, 13, 32, -146, -62, -167, -13, -16, 11, -15, -19, -14, 95, -81, -19, -67, -1, -53, 5, -76, -106, -38, -342, 127, -38, 37, -61, 34, 32, -31, -561, -111, -705, 75, -29, -51, -60, 86, 20, -77, 71, -59, -702, -66, 22, -15, 564, 13, 110, -1, -110, -17, 169, 134, -72, 59, 21, -38, 116, -388, -262, -312, 21, -205, 34, 116, -18, 132, 82, 33, 106, -103, 24, 120, 19, -5, -17, -31, -83, -70, -44, -35, 8, 41, -62, -18, -43, -57, -296, 239, -368, -56, 137, 47, 41, 245, 71, 124, -128, -89, -195, -66, 91, 48, -87, -86, -49, -2, -65, -1, 113, -82, 37, 34, -4, -30, -63, -52, 65, -77, -129, 29, -24, -63, -151, 382, -97, 49, 25, -104, 289, -9, -20, -15, 1015, -144, -116, 45, -1, 11, -66, 32, 9, -77, -48, 126, 14, 52, -159, -32, 1, -809, -20, 42, -64, 30, -43, 55, 80, 1, -260, -75, -27, -68, -9, 81, 16, -48, 76, -40, 0, 17, -87, -73, -773, -161, 41, -286, -19, -4, -65, -48, 43, -16, 24, 30, 56, 77, -105, -64, 0, 33, -9, -2, 50, -1, -64, 9, 0, -46, 25, 76, -59, 162, 1, 59, 209, 97, -5, -77, 89, -40, 55, 132, -100, -155, -45, -66, -34, 1, 97, -395, 25, -99, -92, -58}, {-92, -180, -52, -571, -20, -679, -13, -398, -5, 54, -84, 218, 75, -58, 48, -797, 53, -4, -2, -195, 58, 7, 21, -92, -259, -34, 199, -128, -657, -2, 0, 83, 21, -315, -30, -25, -18, 9, 53, 65, -15, -22, 56, -145, -43, -30, 7, -56, 61, -48, 15, -141, -161, 152, -57, 0, -878, 49, -31, -13, 61, 19, -33, 69, -51, -51, -112, 194, 138, -43, 118, -6, -41, -128, 24, -48, 537, -76, 34, 70, -291, 24, 129, -15, -61, 7, 11, -11, 98, -424, 151, -312, -44, 221, 104, -55, 21, 40, 22, 64, 107, 6, 73, 54, -82, 64, 13, -50, -79, -105, -139, -43, -14, -169, 4, 48, -135, -89, -185, 256, -298, 57, 15, 95, 38, -62, 60, 74, -47, -359, 59, 158, -11, -65, -84, -14, -20, 63, 22, 1, 60, -68, -79, 23, -90, 73, -4, -48, 33, -62, -120, 50, -55, 22, -24, -799, -117, 52, 37, -101, -5, -61, -28, -37, 112, -141, -88, -52, -57, -49, -49, 62, 34, -108, -130, 181, 26, 51, 363, -24, 14, -78, 7, 46, -92, 1403, -51, -26, -96, -243, 110, -87, -133, 50, 44, 40, 47, -89, -62, -440, 50, 10, -174, -39, 71, -58, 15, 36, -227, -4, -133, 32, 51, -24, 40, -2, -70, 89, -9, -11, -18, -126, 74, -98, 23, 13, -58, -4, -73, -91, 16, 46, -36, 108, 22, 31, 325, 58, -88, -16, 13, 5, -8, -485, 24, 34, -1, -37, -114, 24, 104, -91, -48, -43, 29, -60}, {-91, -31, -19, -25, 39, -632, -44, -468, 56, 61, -718, -576, 67, -189, 54, -190, 64, 2, -28, -74, 23, -21, -24, 65, -208, 26, -47, -15, 21, 52, 61, 88, 56, -246, -14, 92, -71, -55, 50, -99, -28, 47, 209, -24, -20, -24, -5, -77, 73, -78, 24, 3, -306, 192, -113, 51, -30, 89, 40, -11, 18, 40, 1, 72, -109, -59, -30, 261, -526, 43, 99, -42, 49, -26, 23, -25, 614, -8, 77, 115, -221, -24, 262, 85, -74, 41, 19, -19, 65, -556, 45, -320, 3, -28, 15, 33, 0, 41, 77, 75, -147, -11, -202, -14, -14, 33, 21, -102, -97, -265, -94, -17, -62, -74, 32, -84, -80, -90, -27, 276, -677, -58, 81, 291, 47, -44, 56, 24, 5, -118, -311, 32, -10, -100, -110, -68, 16, -297, 122, 20, -74, -22, -29, 32, -10, 33, -23, -70, 4, -36, -139, 28, -9, 38, 56, 148, -9, 48, -38, -53, -58, 45, -4, -26, -59, 795, -89, 61, 47, 0, -61, 39, 19, 17, -30, 115, 33, -22, -635, 1315, 6, 17, 10, 54, -53, -26, 14, 13, 116, 9, -85, -97, -10, -16, 19, 59, 40, -129, 3, -40, 92, -10, -194, -120, 25, 41, 42, -72, -32, 1, -90, 57, 42, -35, 21, 2, 36, 112, -2, 13, -18, -56, -21, -24, -85, 115, -48, -767, -98, -337, 31, 69, -64, 168, 155, 23, 430, 26, -664, -178, 70, 38, 6, 91, 3, 24, 77, -36, -87, 10, 100, 5, -1, -97, 23, -5}, {-126, -37, -3, 1, -66, -402, -29, -372, 27, 43, -250, 41, 31, -53, 33, -468, 46, 16, 24, -23, 34, 72, -12, 14, -175, -69, -17, 1300, 5, 65, 52, 151, 63, -329, -57, 16, 56, -5, 0, -1157, -32, -34, 166, -31, -37, -78, 55, -101, 18, -40, 12, -37, -35, 188, -37, 12, 14, 44, -24, -34, 43, 56, -34, 88, -279, -57, 60, 84, -839, 101, 78, -57, 0, -10, 57, -12, 477, 12, 64, 160, 156, -13, 92, -30, -68, 16, 37, -74, 2, -142, 98, -266, 0, -13, 4, -6, -6, 25, 75, 16, -602, -16, -125, 25, 29, 42, 43, -60, -54, -119, -105, -23, -47, 918, 12, 102, -388, -15, 62, 240, -65, 57, 39, 306, 45, -129, 40, 106, 0, 17, 120, 30, 15, -141, -52, -18, 41, 118, 146, 54, -51, 81, -11, 14, 29, 2, -20, -30, 24, -38, -158, -78, -1, 9, 98, -172, -40, 33, 28, 1, -17, 38, 40, -43, -4, -6, -94, 33, 57, -24, -57, 26, -6, 91, -61, -402, 51, 7, 285, -86, 6, 41, 35, 49, -16, -119, 13, -107, 41, 118, -46, -81, -177, 19, 2, 24, 37, -163, 56, -50, 91, -6, -422, -19, -40, 23, 15, -10, -197, -12, -41, 49, 53, 5, 52, -15, 139, 115, 1, -14, 23, -8, -1, -81, 25, 65, -46, -23, -297, 128, 22, 35, -38, 134, 108, 45, 308, 64, -155, -39, 96, 21, 0, -3, 18, 21, -49, 42, -80, -15, 88, -36, -31, -14, 6, -53}, {-192, 24, -51, 9, 0, 35, 160, -333, -1, 52, -16, 60, -499, 102, 41, -267, 51, 30, -4, 28, -40, 130, -8, 40, -91, -84, 6, 77, 25, -1, -170, -62, 58, -286, -53, 2, 18, 27, -12, 1, -61, -3, -100, 4, -41, -29, 9, -173, 0, -70, -11, 43, -472, 144, 5, 35, -3, -327, 84, 33, -36, 56, -98, 106, 198, -61, 16, 160, 51, 143, 87, -16, 21, -66, 86, -31, 511, 118, 47, 9, -5, -38, 94, 21, -82, 37, -91, -16, -13, -338, 92, -223, -82, -50, 83, 31, -33, 41, 78, -46, 56, -19, 81, 32, -24, 41, 42, -26, -110, 33, 10, -6, 165, 82, 83, 62, 24, 592, 27, 250, -265, 71, -63, 15, 100, 148, 135, 22, 253, -7, -96, -19, 56, -15, -100, -65, 17, 0, 53, 39, 6, -39, -66, 96, 29, 38, 158, -49, -7, -21, -105, -155, 77, 145, 8, 5, 22, 38, -19, 0, -108, -8, -22, -78, 31, -36, -143, 55, 8, -27, -76, -136, 322, -45, -73, 77, 43, 19, -24, 35, 20, 20, 27, 32, -58, 68, -38, -65, 63, 119, -24, -41, 28, -289, -301, -378, -6, -34, 64, 34, 96, 131, -19, -63, 16, 0, 885, -474, -24, -37, 55, -60, 143, 63, 48, 7, 36, 67, 36, -13, -28, -17, 18, 6, -21, -213, -60, 25, -61, -41, 94, 42, -68, 185, 102, 31, 253, -92, 36, 25, -456, 8, 157, 0, 24, -185, 6, 84, -65, 21, 27, 50, 10, -96, -58, -71}, {58, 13, -65, -13, -93, -136, -165, -360, 19, 69, 8, 56, -16, 65, 39, -385, 41, 0, 23, 37, -15, 27, 18, 69, -127, -11, 21, 45, 35, -401, -371, -25, 34, -232, -128, 151, 23, 0, 27, 22, -35, -5, 90, -42, -59, -8, -74, -61, 13, -73, -18, 35, -645, 166, -31, 67, -7, -39, -4, -11, 26, 5, -10, 104, 127, -62, 24, 250, 24, 110, 87, 14, 39, 79, 73, -19, 605, 88, 34, -2, 37, -50, 99, 87, -83, 27, 16, 34, -3, -467, -67, -298, -15, -20, 29, -691, 54, -68, 75, 86, 48, -40, 78, 62, -35, 32, -97, -4, -129, -33, 34, 24, 383, 58, -111, 35, 47, 185, -22, 254, -393, 63, 6, 59, 70, 194, 106, 50, 10, 12, -88, 45, 39, 8, -51, -51, 4, 12, 30, 10, 41, -48, -69, 40, -14, -1, 268, -30, 23, -51, -138, -46, 14, 89, 44, 76, -32, 46, 14, -52, -81, -49, 54, -79, 73, -12, -194, 42, 44, 26, -52, -290, -68, -1, -59, 10, 79, 7, 13, 50, 39, 52, 24, 34, -94, 45, -7, -72, 0, 67, -62, -31, -21, 73, -92, -90, -2, -31, 81, 14, 66, 1744, -52, 28, -9, 33, -666, -490, -38, 43, 87, -187, -106, 53, 20, -35, 50, 80, 68, 20, -219, -16, 12, -22, 26, -101, -82, 53, -32, -14, -11, -477, -68, 183, 20, 30, 307, 10, 31, 14, -397, 47, 185, 11, 66, 575, 62, -306, -65, 86, 42, 57, -1, -117, 49, 32}, {33, -44, -51, -22, -31, -93, 45, -376, 9, 66, 6, 72, 64, 86, 39, -445, 42, 23, 119, 26, -10, 26, -846, 76, -85, -141, -49, 36, 71, 112, -157, -80, 20, -145, -39, -54, 33, -10, 57, -8, 99, 5, 0, 44, 36, 106, 11, -38, 30, -59, 41, -31, -664, 120, -21, 27, -1, 115, 91, -8, 3, -276, -34, 71, 13, -59, -53, 317, 51, -39, 73, 17, 18, -341, 28, -36, 552, 193, 20, -19, 4, -24, 29, 259, -58, 10, -90, 36, 42, -397, 0, -276, -15, -50, -664, 361, 25, -337, 44, -130, 47, -86, 98, 97, 30, 32, 53, 20, -88, 12, 9, -22, 418, 82, -9, -2, 13, -76, -290, 227, -311, 109, 29, 46, 98, 2, 96, -197, -21, 25, -149, -1, 87, -13, -33, -18, -19, 70, 9, 1, 50, -12, -142, -697, -652, -329, -10, -540, 38, -36, -108, -22, 86, 4, 64, 79, -16, 35, 180, -112, 142, 10, -27, -87, 82, -2, -124, 82, -9, -395, -64, -176, -39, -39, -12, 12, -33, 14, 73, 39, -183, -28, 74, 49, -132, 11, -16, -23, -60, -17, -47, -51, -30, 50, -118, 46, -150, -91, 36, 62, -61, 132, -9, -414, 16, 19, 230, -604, -40, 8, 84, -159, 189, -13, 27, 13, 98, 68, 64, 